tree
version=v4
num_class=1
num_tree_per_iteration=1
label_index=0
max_feature_idx=1518
objective=binary sigmoid:1
feature_names=Column_0 Column_1 Column_2 Column_3 Column_4 Column_5 Column_6 Column_7 Column_8 Column_9 Column_10 Column_11 Column_12 Column_13 Column_14 Column_15 Column_16 Column_17 Column_18 Column_19 Column_20 Column_21 Column_22 Column_23 Column_24 Column_25 Column_26 Column_27 Column_28 Column_29 Column_30 Column_31 Column_32 Column_33 Column_34 Column_35 Column_36 Column_37 Column_38 Column_39 Column_40 Column_41 Column_42 Column_43 Column_44 Column_45 Column_46 Column_47 Column_48 Column_49 Column_50 Column_51 Column_52 Column_53 Column_54 Column_55 Column_56 Column_57 Column_58 Column_59 Column_60 Column_61 Column_62 Column_63 Column_64 Column_65 Column_66 Column_67 Column_68 Column_69 Column_70 Column_71 Column_72 Column_73 Column_74 Column_75 Column_76 Column_77 Column_78 Column_79 Column_80 Column_81 Column_82 Column_83 Column_84 Column_85 Column_86 Column_87 Column_88 Column_89 Column_90 Column_91 Column_92 Column_93 Column_94 Column_95 Column_96 Column_97 Column_98 Column_99 Column_100 Column_101 Column_102 Column_103 Column_104 Column_105 Column_106 Column_107 Column_108 Column_109 Column_110 Column_111 Column_112 Column_113 Column_114 Column_115 Column_116 Column_117 Column_118 Column_119 Column_120 Column_121 Column_122 Column_123 Column_124 Column_125 Column_126 Column_127 Column_128 Column_129 Column_130 Column_131 Column_132 Column_133 Column_134 Column_135 Column_136 Column_137 Column_138 Column_139 Column_140 Column_141 Column_142 Column_143 Column_144 Column_145 Column_146 Column_147 Column_148 Column_149 Column_150 Column_151 Column_152 Column_153 Column_154 Column_155 Column_156 Column_157 Column_158 Column_159 Column_160 Column_161 Column_162 Column_163 Column_164 Column_165 Column_166 Column_167 Column_168 Column_169 Column_170 Column_171 Column_172 Column_173 Column_174 Column_175 Column_176 Column_177 Column_178 Column_179 Column_180 Column_181 Column_182 Column_183 Column_184 Column_185 Column_186 Column_187 Column_188 Column_189 Column_190 Column_191 Column_192 Column_193 Column_194 Column_195 Column_196 Column_197 Column_198 Column_199 Column_200 Column_201 Column_202 Column_203 Column_204 Column_205 Column_206 Column_207 Column_208 Column_209 Column_210 Column_211 Column_212 Column_213 Column_214 Column_215 Column_216 Column_217 Column_218 Column_219 Column_220 Column_221 Column_222 Column_223 Column_224 Column_225 Column_226 Column_227 Column_228 Column_229 Column_230 Column_231 Column_232 Column_233 Column_234 Column_235 Column_236 Column_237 Column_238 Column_239 Column_240 Column_241 Column_242 Column_243 Column_244 Column_245 Column_246 Column_247 Column_248 Column_249 Column_250 Column_251 Column_252 Column_253 Column_254 Column_255 Column_256 Column_257 Column_258 Column_259 Column_260 Column_261 Column_262 Column_263 Column_264 Column_265 Column_266 Column_267 Column_268 Column_269 Column_270 Column_271 Column_272 Column_273 Column_274 Column_275 Column_276 Column_277 Column_278 Column_279 Column_280 Column_281 Column_282 Column_283 Column_284 Column_285 Column_286 Column_287 Column_288 Column_289 Column_290 Column_291 Column_292 Column_293 Column_294 Column_295 Column_296 Column_297 Column_298 Column_299 Column_300 Column_301 Column_302 Column_303 Column_304 Column_305 Column_306 Column_307 Column_308 Column_309 Column_310 Column_311 Column_312 Column_313 Column_314 Column_315 Column_316 Column_317 Column_318 Column_319 Column_320 Column_321 Column_322 Column_323 Column_324 Column_325 Column_326 Column_327 Column_328 Column_329 Column_330 Column_331 Column_332 Column_333 Column_334 Column_335 Column_336 Column_337 Column_338 Column_339 Column_340 Column_341 Column_342 Column_343 Column_344 Column_345 Column_346 Column_347 Column_348 Column_349 Column_350 Column_351 Column_352 Column_353 Column_354 Column_355 Column_356 Column_357 Column_358 Column_359 Column_360 Column_361 Column_362 Column_363 Column_364 Column_365 Column_366 Column_367 Column_368 Column_369 Column_370 Column_371 Column_372 Column_373 Column_374 Column_375 Column_376 Column_377 Column_378 Column_379 Column_380 Column_381 Column_382 Column_383 Column_384 Column_385 Column_386 Column_387 Column_388 Column_389 Column_390 Column_391 Column_392 Column_393 Column_394 Column_395 Column_396 Column_397 Column_398 Column_399 Column_400 Column_401 Column_402 Column_403 Column_404 Column_405 Column_406 Column_407 Column_408 Column_409 Column_410 Column_411 Column_412 Column_413 Column_414 Column_415 Column_416 Column_417 Column_418 Column_419 Column_420 Column_421 Column_422 Column_423 Column_424 Column_425 Column_426 Column_427 Column_428 Column_429 Column_430 Column_431 Column_432 Column_433 Column_434 Column_435 Column_436 Column_437 Column_438 Column_439 Column_440 Column_441 Column_442 Column_443 Column_444 Column_445 Column_446 Column_447 Column_448 Column_449 Column_450 Column_451 Column_452 Column_453 Column_454 Column_455 Column_456 Column_457 Column_458 Column_459 Column_460 Column_461 Column_462 Column_463 Column_464 Column_465 Column_466 Column_467 Column_468 Column_469 Column_470 Column_471 Column_472 Column_473 Column_474 Column_475 Column_476 Column_477 Column_478 Column_479 Column_480 Column_481 Column_482 Column_483 Column_484 Column_485 Column_486 Column_487 Column_488 Column_489 Column_490 Column_491 Column_492 Column_493 Column_494 Column_495 Column_496 Column_497 Column_498 Column_499 Column_500 Column_501 Column_502 Column_503 Column_504 Column_505 Column_506 Column_507 Column_508 Column_509 Column_510 Column_511 Column_512 Column_513 Column_514 Column_515 Column_516 Column_517 Column_518 Column_519 Column_520 Column_521 Column_522 Column_523 Column_524 Column_525 Column_526 Column_527 Column_528 Column_529 Column_530 Column_531 Column_532 Column_533 Column_534 Column_535 Column_536 Column_537 Column_538 Column_539 Column_540 Column_541 Column_542 Column_543 Column_544 Column_545 Column_546 Column_547 Column_548 Column_549 Column_550 Column_551 Column_552 Column_553 Column_554 Column_555 Column_556 Column_557 Column_558 Column_559 Column_560 Column_561 Column_562 Column_563 Column_564 Column_565 Column_566 Column_567 Column_568 Column_569 Column_570 Column_571 Column_572 Column_573 Column_574 Column_575 Column_576 Column_577 Column_578 Column_579 Column_580 Column_581 Column_582 Column_583 Column_584 Column_585 Column_586 Column_587 Column_588 Column_589 Column_590 Column_591 Column_592 Column_593 Column_594 Column_595 Column_596 Column_597 Column_598 Column_599 Column_600 Column_601 Column_602 Column_603 Column_604 Column_605 Column_606 Column_607 Column_608 Column_609 Column_610 Column_611 Column_612 Column_613 Column_614 Column_615 Column_616 Column_617 Column_618 Column_619 Column_620 Column_621 Column_622 Column_623 Column_624 Column_625 Column_626 Column_627 Column_628 Column_629 Column_630 Column_631 Column_632 Column_633 Column_634 Column_635 Column_636 Column_637 Column_638 Column_639 Column_640 Column_641 Column_642 Column_643 Column_644 Column_645 Column_646 Column_647 Column_648 Column_649 Column_650 Column_651 Column_652 Column_653 Column_654 Column_655 Column_656 Column_657 Column_658 Column_659 Column_660 Column_661 Column_662 Column_663 Column_664 Column_665 Column_666 Column_667 Column_668 Column_669 Column_670 Column_671 Column_672 Column_673 Column_674 Column_675 Column_676 Column_677 Column_678 Column_679 Column_680 Column_681 Column_682 Column_683 Column_684 Column_685 Column_686 Column_687 Column_688 Column_689 Column_690 Column_691 Column_692 Column_693 Column_694 Column_695 Column_696 Column_697 Column_698 Column_699 Column_700 Column_701 Column_702 Column_703 Column_704 Column_705 Column_706 Column_707 Column_708 Column_709 Column_710 Column_711 Column_712 Column_713 Column_714 Column_715 Column_716 Column_717 Column_718 Column_719 Column_720 Column_721 Column_722 Column_723 Column_724 Column_725 Column_726 Column_727 Column_728 Column_729 Column_730 Column_731 Column_732 Column_733 Column_734 Column_735 Column_736 Column_737 Column_738 Column_739 Column_740 Column_741 Column_742 Column_743 Column_744 Column_745 Column_746 Column_747 Column_748 Column_749 Column_750 Column_751 Column_752 Column_753 Column_754 Column_755 Column_756 Column_757 Column_758 Column_759 Column_760 Column_761 Column_762 Column_763 Column_764 Column_765 Column_766 Column_767 Column_768 Column_769 Column_770 Column_771 Column_772 Column_773 Column_774 Column_775 Column_776 Column_777 Column_778 Column_779 Column_780 Column_781 Column_782 Column_783 Column_784 Column_785 Column_786 Column_787 Column_788 Column_789 Column_790 Column_791 Column_792 Column_793 Column_794 Column_795 Column_796 Column_797 Column_798 Column_799 Column_800 Column_801 Column_802 Column_803 Column_804 Column_805 Column_806 Column_807 Column_808 Column_809 Column_810 Column_811 Column_812 Column_813 Column_814 Column_815 Column_816 Column_817 Column_818 Column_819 Column_820 Column_821 Column_822 Column_823 Column_824 Column_825 Column_826 Column_827 Column_828 Column_829 Column_830 Column_831 Column_832 Column_833 Column_834 Column_835 Column_836 Column_837 Column_838 Column_839 Column_840 Column_841 Column_842 Column_843 Column_844 Column_845 Column_846 Column_847 Column_848 Column_849 Column_850 Column_851 Column_852 Column_853 Column_854 Column_855 Column_856 Column_857 Column_858 Column_859 Column_860 Column_861 Column_862 Column_863 Column_864 Column_865 Column_866 Column_867 Column_868 Column_869 Column_870 Column_871 Column_872 Column_873 Column_874 Column_875 Column_876 Column_877 Column_878 Column_879 Column_880 Column_881 Column_882 Column_883 Column_884 Column_885 Column_886 Column_887 Column_888 Column_889 Column_890 Column_891 Column_892 Column_893 Column_894 Column_895 Column_896 Column_897 Column_898 Column_899 Column_900 Column_901 Column_902 Column_903 Column_904 Column_905 Column_906 Column_907 Column_908 Column_909 Column_910 Column_911 Column_912 Column_913 Column_914 Column_915 Column_916 Column_917 Column_918 Column_919 Column_920 Column_921 Column_922 Column_923 Column_924 Column_925 Column_926 Column_927 Column_928 Column_929 Column_930 Column_931 Column_932 Column_933 Column_934 Column_935 Column_936 Column_937 Column_938 Column_939 Column_940 Column_941 Column_942 Column_943 Column_944 Column_945 Column_946 Column_947 Column_948 Column_949 Column_950 Column_951 Column_952 Column_953 Column_954 Column_955 Column_956 Column_957 Column_958 Column_959 Column_960 Column_961 Column_962 Column_963 Column_964 Column_965 Column_966 Column_967 Column_968 Column_969 Column_970 Column_971 Column_972 Column_973 Column_974 Column_975 Column_976 Column_977 Column_978 Column_979 Column_980 Column_981 Column_982 Column_983 Column_984 Column_985 Column_986 Column_987 Column_988 Column_989 Column_990 Column_991 Column_992 Column_993 Column_994 Column_995 Column_996 Column_997 Column_998 Column_999 Column_1000 Column_1001 Column_1002 Column_1003 Column_1004 Column_1005 Column_1006 Column_1007 Column_1008 Column_1009 Column_1010 Column_1011 Column_1012 Column_1013 Column_1014 Column_1015 Column_1016 Column_1017 Column_1018 Column_1019 Column_1020 Column_1021 Column_1022 Column_1023 Column_1024 Column_1025 Column_1026 Column_1027 Column_1028 Column_1029 Column_1030 Column_1031 Column_1032 Column_1033 Column_1034 Column_1035 Column_1036 Column_1037 Column_1038 Column_1039 Column_1040 Column_1041 Column_1042 Column_1043 Column_1044 Column_1045 Column_1046 Column_1047 Column_1048 Column_1049 Column_1050 Column_1051 Column_1052 Column_1053 Column_1054 Column_1055 Column_1056 Column_1057 Column_1058 Column_1059 Column_1060 Column_1061 Column_1062 Column_1063 Column_1064 Column_1065 Column_1066 Column_1067 Column_1068 Column_1069 Column_1070 Column_1071 Column_1072 Column_1073 Column_1074 Column_1075 Column_1076 Column_1077 Column_1078 Column_1079 Column_1080 Column_1081 Column_1082 Column_1083 Column_1084 Column_1085 Column_1086 Column_1087 Column_1088 Column_1089 Column_1090 Column_1091 Column_1092 Column_1093 Column_1094 Column_1095 Column_1096 Column_1097 Column_1098 Column_1099 Column_1100 Column_1101 Column_1102 Column_1103 Column_1104 Column_1105 Column_1106 Column_1107 Column_1108 Column_1109 Column_1110 Column_1111 Column_1112 Column_1113 Column_1114 Column_1115 Column_1116 Column_1117 Column_1118 Column_1119 Column_1120 Column_1121 Column_1122 Column_1123 Column_1124 Column_1125 Column_1126 Column_1127 Column_1128 Column_1129 Column_1130 Column_1131 Column_1132 Column_1133 Column_1134 Column_1135 Column_1136 Column_1137 Column_1138 Column_1139 Column_1140 Column_1141 Column_1142 Column_1143 Column_1144 Column_1145 Column_1146 Column_1147 Column_1148 Column_1149 Column_1150 Column_1151 Column_1152 Column_1153 Column_1154 Column_1155 Column_1156 Column_1157 Column_1158 Column_1159 Column_1160 Column_1161 Column_1162 Column_1163 Column_1164 Column_1165 Column_1166 Column_1167 Column_1168 Column_1169 Column_1170 Column_1171 Column_1172 Column_1173 Column_1174 Column_1175 Column_1176 Column_1177 Column_1178 Column_1179 Column_1180 Column_1181 Column_1182 Column_1183 Column_1184 Column_1185 Column_1186 Column_1187 Column_1188 Column_1189 Column_1190 Column_1191 Column_1192 Column_1193 Column_1194 Column_1195 Column_1196 Column_1197 Column_1198 Column_1199 Column_1200 Column_1201 Column_1202 Column_1203 Column_1204 Column_1205 Column_1206 Column_1207 Column_1208 Column_1209 Column_1210 Column_1211 Column_1212 Column_1213 Column_1214 Column_1215 Column_1216 Column_1217 Column_1218 Column_1219 Column_1220 Column_1221 Column_1222 Column_1223 Column_1224 Column_1225 Column_1226 Column_1227 Column_1228 Column_1229 Column_1230 Column_1231 Column_1232 Column_1233 Column_1234 Column_1235 Column_1236 Column_1237 Column_1238 Column_1239 Column_1240 Column_1241 Column_1242 Column_1243 Column_1244 Column_1245 Column_1246 Column_1247 Column_1248 Column_1249 Column_1250 Column_1251 Column_1252 Column_1253 Column_1254 Column_1255 Column_1256 Column_1257 Column_1258 Column_1259 Column_1260 Column_1261 Column_1262 Column_1263 Column_1264 Column_1265 Column_1266 Column_1267 Column_1268 Column_1269 Column_1270 Column_1271 Column_1272 Column_1273 Column_1274 Column_1275 Column_1276 Column_1277 Column_1278 Column_1279 Column_1280 Column_1281 Column_1282 Column_1283 Column_1284 Column_1285 Column_1286 Column_1287 Column_1288 Column_1289 Column_1290 Column_1291 Column_1292 Column_1293 Column_1294 Column_1295 Column_1296 Column_1297 Column_1298 Column_1299 Column_1300 Column_1301 Column_1302 Column_1303 Column_1304 Column_1305 Column_1306 Column_1307 Column_1308 Column_1309 Column_1310 Column_1311 Column_1312 Column_1313 Column_1314 Column_1315 Column_1316 Column_1317 Column_1318 Column_1319 Column_1320 Column_1321 Column_1322 Column_1323 Column_1324 Column_1325 Column_1326 Column_1327 Column_1328 Column_1329 Column_1330 Column_1331 Column_1332 Column_1333 Column_1334 Column_1335 Column_1336 Column_1337 Column_1338 Column_1339 Column_1340 Column_1341 Column_1342 Column_1343 Column_1344 Column_1345 Column_1346 Column_1347 Column_1348 Column_1349 Column_1350 Column_1351 Column_1352 Column_1353 Column_1354 Column_1355 Column_1356 Column_1357 Column_1358 Column_1359 Column_1360 Column_1361 Column_1362 Column_1363 Column_1364 Column_1365 Column_1366 Column_1367 Column_1368 Column_1369 Column_1370 Column_1371 Column_1372 Column_1373 Column_1374 Column_1375 Column_1376 Column_1377 Column_1378 Column_1379 Column_1380 Column_1381 Column_1382 Column_1383 Column_1384 Column_1385 Column_1386 Column_1387 Column_1388 Column_1389 Column_1390 Column_1391 Column_1392 Column_1393 Column_1394 Column_1395 Column_1396 Column_1397 Column_1398 Column_1399 Column_1400 Column_1401 Column_1402 Column_1403 Column_1404 Column_1405 Column_1406 Column_1407 Column_1408 Column_1409 Column_1410 Column_1411 Column_1412 Column_1413 Column_1414 Column_1415 Column_1416 Column_1417 Column_1418 Column_1419 Column_1420 Column_1421 Column_1422 Column_1423 Column_1424 Column_1425 Column_1426 Column_1427 Column_1428 Column_1429 Column_1430 Column_1431 Column_1432 Column_1433 Column_1434 Column_1435 Column_1436 Column_1437 Column_1438 Column_1439 Column_1440 Column_1441 Column_1442 Column_1443 Column_1444 Column_1445 Column_1446 Column_1447 Column_1448 Column_1449 Column_1450 Column_1451 Column_1452 Column_1453 Column_1454 Column_1455 Column_1456 Column_1457 Column_1458 Column_1459 Column_1460 Column_1461 Column_1462 Column_1463 Column_1464 Column_1465 Column_1466 Column_1467 Column_1468 Column_1469 Column_1470 Column_1471 Column_1472 Column_1473 Column_1474 Column_1475 Column_1476 Column_1477 Column_1478 Column_1479 Column_1480 Column_1481 Column_1482 Column_1483 Column_1484 Column_1485 Column_1486 Column_1487 Column_1488 Column_1489 Column_1490 Column_1491 Column_1492 Column_1493 Column_1494 Column_1495 Column_1496 Column_1497 Column_1498 Column_1499 Column_1500 Column_1501 Column_1502 Column_1503 Column_1504 Column_1505 Column_1506 Column_1507 Column_1508 Column_1509 Column_1510 Column_1511 Column_1512 Column_1513 Column_1514 Column_1515 Column_1516 Column_1517 Column_1518
feature_infos=[-5.5788490095292625e-13:0.99544599600188821] [-0.065890456828597802:0.99620002482264658] [-0.029508991606281433:0.99115682012616391] [-0.03772523888630791:0.98107209175498244] [-0.090975683045100911:0.98505023561255922] [-0.069314059940252401:0.90633637412168322] [-0.22880770310228757:0.96206520638678505] [-0.018663607309101243:0.91566384955505087] [-0.049705773501613031:0.75944518468739086] [-0.55062050769029014:0.78721186489869965] [-0.5717086856330349:0.66360263950542964] [-0.24607111701276013:0.92124991502661246] [-0.14420148121424081:0.93032684845316038] [-0.1743162695556566:0.94619041691196271] [-0.15282063996399795:0.94432463464201077] [-0.13496643821358517:0.95768449897680175] [-0.053168093412908755:0.99227598565503705] [-0.24153233769612603:0.89336162536866037] [-0.20638159989439955:0.94991936501140983] [-0.13495796523527454:0.9778074539484598] [-0.13437287388541139:0.9388235839601482] [-0.10742285171892624:0.97935838829028921] [-0.15830451100705412:0.9535684207047268] [-0.1500544321754505:0.78994915202164773] [-0.49171680629296716:0.81695449347501836] [-0.066195415403833655:0.93505652413349638] [-0.1828127107214173:0.86466078802007074] [-0.10423276500694385:0.94036132805239758] [-0.47791560628252772:0.79788652936628501] [-0.19882861958113826:0.81654012808733534] [-0.38981316622735129:0.59921387068785459] [-0.14767794077589258:0.96469307893299638] [-0.05767483911056856:0.96981964832714629] [-0.11894622678713428:0.90199958027546401] [-0.29082830692088296:0.62744239835781535] [-0.16805117819137536:0.79822853528401916] [-0.4617931978679396:0.74652543062187637] [-0.21866751620798314:0.87316030588581739] [-0.24336898015990785:0.83688061495113297] [-0.44089345611597913:0.6999362605053977] [-0.16418283895202712:0.93900372961580547] [-0.20776422417597881:0.83308251216289608] [-0.15272238630122503:0.75477513513639793] [-0.4047530759725731:0.70362923731358418] [-0.52766694033539718:0.67248672555061295] [-0.30464086775133492:0.7043509411369977] [-0.45257315158189926:0.57981800263343131] [-0.38794053639970028:0.61509902094801516] [-0.33461820508330381:0.79194686638642164] [-0.15364662424627387:0.77972566862423454] [-0.36366034109120382:0.7498019608650518] [-0.19352371505862226:0.94001719258565597] [-0.15304621921461839:0.90317171817884356] [-0.29073784565163935:0.61128231613482398] [-0.46454197300935923:0.6474075718494694] [-0.24827255640944956:0.85604674863748254] [-0.34518303274151013:0.50067615567862134] [-0.48208510520301334:0.62042390909666478] [-0.12022031963534807:0.65919452311219884] [-0.41216452169950091:0.73063949997287636] [-0.39851541156910553:0.61195816347843057] [-0.40534968085699485:0.63342442238078633] [-0.20725339051908626:0.60257788695744519] [-0.16722132828952321:0.79796805898007073] [-0.2481792252111143:0.69169022443446271] [-0.39528087007039958:0.80797422769821048] [-0.24856172162381354:0.87552547146429671] [-0.34625873718692651:0.53842370381098414] [-0.046383208641441874:0.9157401819684089] [-0.4390829988948774:0.63284804510328596] [-0.33124571384185625:0.64993132823373923] [-0.094114101922380886:0.86169030225292464] [-0.39371615983180769:0.60542384792478598] [-0.38887409758290864:0.67905929953157107] [-0.16015887494611492:0.67426773950646612] [-0.23016925271044322:0.50907147515666828] [-0.38845787886479:0.49869185349916961] [-0.10240834145158396:0.90469045817997495] [-0.32321455187384851:0.49435476458584338] [-0.40231077984009633:0.53970545349773669] [-0.26882189741186363:0.7037040044188122] [-0.45675833536835891:0.6709671494833469] [-0.26603507003812754:0.53077222939971558] [-0.31769978238551272:0.35816802755042815] [-0.40300713843749986:0.57311588233654398] [-0.22417658017435119:0.89764191024809881] [-0.19325300412084689:0.74463634305710391] [-0.12441464469106585:0.73041257844636087] [-0.26579440420674816:0.77422519172738336] [-0.51978803015330022:0.56191218684510003] [-0.23713116970832993:0.80393913065385758] [-0.56317183777966418:0.57715699368510776] [-0.31287221988345404:0.76830293489713442] [-0.40781101435248157:0.78179328046644003] [-0.40442157955030283:0.7530776660419719] [-0.38383778934596446:0.6863031721119629] [-0.34065754546273846:0.45306109743918332] [-0.42786782933712941:0.51399983326236076] [-0.40422125512035195:0.5690046810860041] [-0.18330447103203759:0.89502277554464538] [-0.16145678969719221:0.72289360368403466] [-0.44228107375876347:0.7407867377592332] [-0.1280266875130264:0.93317309035555451] [-0.22719585323312075:0.76969822541549571] [-0.29063906119457894:0.85862933886430404] [-0.49551866988923104:0.74154916398106019] [-0.24819583462882785:0.79611377411528195] [-0.31965527239651581:0.76231350704083733] [-0.12987913874282714:0.56200843287985514] [-0.099755669377627212:0.80581811758527588] [-0.32719856210590093:0.58535946258866944] [-0.32476307292451978:0.6565646916629031] [-0.39647595359903631:0.63806371687971442] [-0.18676660351906099:0.74160205793839784] [-0.11975000385582288:0.89480278039200956] [-0.19977934221993471:0.77111067252291254] [-0.29235036248150831:0.60966783079527365] [-0.13364960263578168:0.94422648120849328] [-0.27187844421828039:0.51388770374638382] [-0.41085050309399879:0.56522818624049609] [-0.4367018558674356:0.57493435064327492] [-0.360627031476492:0.65225452797311512] [-0.33270971708401026:0.594802653495208] [-0.33688374821146944:0.57135415791908417] [-0.49075069262996401:0.55530520854453491] [-0.20530778352962342:0.68008995020499186] [-0.47115612945111346:0.66391467754906996] [-0.31844497400494182:0.70734646958610536] [-0.2933606552495594:0.65219128160653017] [-0.20080866233928341:0.79963182207835259] [-0.43314375217437256:0.48033231487869416] [-0.074558399340155401:0.94798066242911172] [-0.28395507711484069:0.59451303376530162] [-0.21290738022000022:0.5329853490249773] [-0.37824949400705865:0.70437321881446702] [-0.48811069383675654:0.67761618701309922] [-0.41103929511625198:0.87386275263010915] [-0.55928818636875277:0.57388482948589792] [-0.39682696873467327:0.600149092954809] [-0.59826105154359999:0.6043783133240882] [-0.28236287191317805:0.64679324242212621] [-0.35425309994579018:0.68687724915988646] [-0.32562378112739637:0.68408795756658536] [-0.42794625132628572:0.43604272802376465] [-0.32079579837474526:0.48770947013760702] [-0.34345090584561133:0.48712054246653835] [-0.30948382926598816:0.4090826784307392] [-0.16547478862257395:0.76592825449825219] [-0.39517318707104848:0.56609030572781671] [-0.37128652254216848:0.52148629025374604] [-0.26931129794001774:0.65278615823579178] [-0.14671619654883261:0.68328683781706334] [-0.30475100427595758:0.70966899456305599] [-0.50305131713204876:0.53245792739099429] [-0.31087012775862355:0.66862149153828465] [-0.18862583994954812:0.54306364426364073] [-0.25788929454775344:0.48269506693920816] [-0.38176743981723665:0.52256348563227462] [-0.38393977125788536:0.58665328802439043] [-0.35325750476371448:0.57179891146914086] [-0.49698835419748577:0.55763047204321337] [-0.29471599570471774:0.69861042315245114] [-0.34616476907958771:0.55436672380847307] [-0.18173160599335703:0.82211008607051161] [-0.38671431194006961:0.58430809849260534] [-0.27984584256661588:0.52783631692326538] [-0.34117955102317954:0.61951280579295998] [-0.18986148875318543:0.88154960826265305] [-0.33927220549007925:0.52858179588326415] [-0.21341381940488399:0.51560009413777808] [-0.21986642001324777:0.6956705809449476] [-0.39107254728675744:0.39598584492760458] [-0.32357326008031057:0.62858404701189241] [-0.34538928737440483:0.60807778871440998] [-0.41534852645407094:0.42310610677284088] [-0.29105268992902855:0.41078976502082026] [-0.13850283300975183:0.86258309446006631] [-0.19598054834729906:0.77298219123050482] [-0.2248182996625592:0.60032765283425338] [-0.41205108511906208:0.47241777856316458] [-0.40202561303096063:0.61260101878433348] [-0.35884170590239478:0.4117616628512285] [-0.28819896897855413:0.60581724469435738] [-0.34913599552354335:0.48062935250972] [-0.2441577921947099:0.56093908490961786] [-0.35402293349404712:0.5163645657011654] [-0.21796720287644233:0.36934557003974766] [-0.34240511274876528:0.56644570644814762] [-0.30652101268355214:0.40078621540970805] [-0.33154750575992176:0.39076326337327333] [-0.26301376629895129:0.55864947237180884] [-0.25838106479485012:0.71377508444434368] [-0.17457260571169864:0.58744124309785473] [-0.38111456336416116:0.4350470698600758] [-0.33090648738808826:0.52068977455450571] [-0.18452454513128769:0.92780407851852331] [-0.37277942504062334:0.44865924399573365] [-0.34062856473386904:0.37660721381402751] [-0.26447731105903532:0.42547694160055072] [-0.43651045118137477:0.56770388934641003] [-0.42767011366409663:0.48372945827291858] [-0.33340294483489963:0.47350603928086837] [-0.24290253071952916:0.72056211162969397] [-0.39180202328012348:0.45843140599953064] [-0.40421421927575929:0.48495618499332366] [-0.30108877628318909:0.53896424309796065] [-0.32190199150114046:0.34047021336377681] [-0.3696530283492897:0.54712533740818847] [-0.17192788312832535:0.69941044303151167] [-0.36924191398739026:0.52624093767061386] [-0.29705081565289154:0.69856830453045327] [-0.19473116450042879:0.55221807390041988] [-0.44157735210856847:0.43120817990459481] [-0.25032414251540586:0.51839265452388261] [-0.2065144336646253:0.52632637540751115] [-0.27580530074139786:0.48577413259132601] [-0.50619719317198031:0.68298420181041208] [-0.42237334239658808:0.58400820117321861] [-0.24121978708312075:0.47076430272963821] [-0.15783075987840253:0.68910628171997568] [-0.11526733644718541:0.90226332734396042] [-0.29993025104442383:0.49076617325340027] [-0.30821454213500099:0.66712794004643339] [-0.16812059843111174:0.72483987940000583] [-0.22168953643312339:0.57220550899571399] [-0.064265247246755627:0.86543712238934445] [-0.24644733781900008:0.79064147203675539] [-0.30910029162024721:0.65460154371415646] [-0.31802143966685648:0.70034733811689442] [-0.17106039785969249:0.86474470308317042] [-0.42797668442763581:0.61402673650826611] [-0.37611186573559707:0.88286377642684433] [-0.052237277795562448:0.82610288430417544] [-0.22259372517868256:0.75275712355430302] [-0.21247171187404418:0.45809484624906799] [-0.34489856232886751:0.39095422807594638] [-0.28829375112394179:0.45920001442800884] [-0.30230791103112414:0.41052140908585494] [-0.24526799240982722:0.32703681857156769] [-0.3323516591368002:0.47036661216139697] [-0.12126171053104098:0.83685212717802127] [-0.26445424082658103:0.64485503088048279] [-0.4326008690352709:0.507808975784243] [-0.36500838910377192:0.4075860162931722] [-0.25665017575452997:0.57408008531516985] [-0.25219628014472217:0.5578308846188812] [-0.28043206814572336:0.54309099232570168] [-0.28872465462074887:0.44782818482096531] [-0.26508621666630261:0.31163706434445265] [-0.21319816800830438:0.40922296375903588] [-0.23120210653659831:0.62325690024924296] [-0.20386071679784135:0.74704505885927541] [-0.28813989309478671:0.42567792485674844] [-0.18081313999323395:0.71322204221369123] [-0.20236472074426951:0.40174980769853463] [-0.11912875539562569:0.89916894677238712] [-0.29883449501449688:0.42747678471920803] [-0.25568630117530805:0.37363022588896661] [-0.33260908751158014:0.46838409461655151] [-0.26598416582582385:0.46831125115786271] [-0.3884371145120924:0.4463972515054328] [-0.38731607569718718:0.39482789503378635] [-0.27435810085406265:0.60303580424031189] [-0.088591717975471676:0.76867756553335354] [-0.22168160054863875:0.33658799683840324] [-0.20632863594537776:0.4161829852170677] [-0.30308543515444569:0.38218499444674625] [-0.24451322453413205:0.52031204590911662] [-0.450316381705825:0.37101629364743255] [-0.30339866714644836:0.37792740330907498] [-0.25463984096648912:0.74051913691414251] [-0.27906616290208852:0.26006023710865517] [-0.2357598792038684:0.5902949228133928] [-0.37739069241033074:0.61273587102819549] [-0.24296247801563353:0.38827807010146909] [-0.17807733856676097:0.7641531532618473] [-0.26297189748116895:0.75589227278651649] [-0.35564453451835198:0.41791535863981261] [-0.087199949389349357:0.9477688667155727] [-0.41017710636169058:0.53443928300867349] [-0.23922504113667059:0.79853189227623533] [-0.4264668752894154:0.46646953465086038] [-0.4724285621943598:0.51741235155293019] [-0.26565917609733847:0.47852891250197793] [-0.27889114008661786:0.63438994971449714] [-0.25244544688256376:0.60114354372832579] [-0.12259129903476898:0.7769787448944645] [-0.16312482210972407:0.66922389645343006] [-0.51408513357325647:0.56830467656691885] [-0.41146248458605317:0.46631338036557041] [-0.29725230685502652:0.62158241639986678] [-0.14347275281141308:0.58045287462241468] [-0.46177226827128004:0.69243375516876182] [-0.10560689068464912:0.93337859739673867] [-0.31982024780213802:0.36667396432068761] [-0.27995910078674657:0.73154815351323277] [-0.25725271389258814:0.45118834105324634] [-0.28109041174902838:0.61941305262712876] [-0.21109260444842454:0.4204494065445476] [-0.41036606490505667:0.47004851517820662] [-0.38859214747478071:0.45604482188817641] [-0.42026910597178785:0.4244397866184817] [-0.32223017157248862:0.48589365765674131] [-0.46860022965856557:0.52926839568289674] [-0.240066421938714:0.50102116911602057] [-0.29536716927209178:0.47509857308371761] [-0.24414909264370641:0.72190658188464263] [-0.37225994460073947:0.67666778043654641] [-0.20616793149705537:0.4808390884164005] [-0.30879320264700916:0.46465042573910259] [-0.2346579742376097:0.2890167100888833] [-0.24625864405257439:0.29925148320957257] [-0.31451540803506706:0.40020447061245645] [-0.28633523057241078:0.64490766847494529] [-0.36913632793809226:0.59905180202157304] [-0.36932810381665948:0.51983068172178259] [-0.17992187444532173:0.33005079178837787] [-0.31987761435468942:0.75503658687763719] [-0.30688812885773109:0.5631120399704882] [-0.33659948365094877:0.37785531224822322] [-0.35795538913333247:0.33926649177651286] [-0.12099069319859454:0.8650945541675199] [-0.35906913334883478:0.4163522692565953] [-0.13007923492208831:0.86075982058732614] [-0.19578121575537513:0.46498050424249043] [-0.42581595758245411:0.62828002304613351] [-0.20222030121885939:0.68044096928058928] [-0.31709123127515026:0.50097288470175139] [-0.37749861407094953:0.47403031557305436] [-0.30725017375434976:0.39606364488423507] [-0.1309902951644927:0.86092655332629964] [-0.36586090673044058:0.36344153469784901] [-0.24251135700537457:0.49715996031391285] [-0.28038108816441581:0.78894381618806519] [-0.2999454283408754:0.35406013694244348] [-0.15998324106554707:0.87849038721939721] [-0.40467112183444742:0.62276418618810936] [-0.26866307326833727:0.48393258077284163] [-0.15158596226390367:0.57084152672420585] [-0.21481914530565205:0.7439388390866446] [-0.34123151730097456:0.52914778287762543] [-0.17345039033453066:0.4655681430289027] [-0.10340054004441682:0.89049542016341365] [-0.39535928567662215:0.52690827200207102] [-0.14885010280169939:0.92760154682834839] [-0.23348915278462956:0.78322396316582399] [-0.32648524996323719:0.45676421380967186] [-0.061862896435985443:0.95656252836158417] [-0.52670712016113386:0.49369683543874021] [-0.26678481425393324:0.36311644725480169] [-0.3123139982641891:0.43391024476722884] [-0.30726872489808987:0.57297001801780323] [-0.14146832530270315:0.85048777256609198] [-0.17920481230802504:0.91867999047130733] [-0.20726978110145891:0.75347722550145424] [-0.28048943336349436:0.5474626096876144] [-0.39023473838786654:0.56413557050808838] [-0.23182562283862923:0.49460885218177336] [-0.27821966472998594:0.3099705545628319] [-0.37628653291555286:0.82033272451177619] [-0.21935045933740063:0.64782768200130791] [-0.17521017904947656:0.78486481282594911] [-0.29216093697564277:0.37958894184777275] [-0.23778018005301105:0.59939486210793969] [-0.16635762305680948:0.56934127116668887] [-0.31004867465574298:0.74197670011058803] [-0.27177427665479481:0.71905655799856849] [-0.25398063406518545:0.62861093094178488] [-0.31914223843758471:0.36207699763104145] [-0.20297583423073967:0.45968953967065107] [-0.29531772820328511:0.61941719841655474] [-0.31988069969639998:0.3252164689843916] [-0.2855943559765039:0.41528871920297722] [-0.3061786400052513:0.44868807507672614] [-0.33716477736513245:0.35231754698944034] [-0.18582184494063694:0.39736328359038442] [-0.32067834877832857:0.52561925966086132] [-0.27594469138817257:0.40441950457116971] [-0.34565975053463166:0.39447371899466604] [-0.2224939266696232:0.46571955499104833] [-0.12737913110320159:0.59484506292584238] [-0.15937545942987075:0.60454693209274657] [-0.25405428088218085:0.40523960505767215] [-0.32683923248075886:0.50024236008674239] [-0.073579652297288578:0.96544827155809476] [-0.27556766642611519:0.47715889415029] [-0.1295614872089666:0.89971748247476169] [-0.14583084009725675:0.51121359132023003] [-0.38927318705580755:0.59337466345047951] [-0.24531224953810715:0.38323166919287605] [-0.29420877803568019:0.74661234460761139] [-0.37491405153868951:0.42384465279553835] [-0.23655205507276103:0.6136322402578489] [-0.33393979640582128:0.43957821170365891] [-0.28812735614971641:0.45967230862446268] [-0.31185986400107429:0.3552905736083975] [-0.19694040349598818:0.76775236135601288] [-0.0050812070022944545:0.99962482881789638] [-0.20372534399141778:0.36909446025449499] [-0.22525135079602809:0.55978828640303502] [-0.29834944745359154:0.46922266659304729] [-0.1858922829135882:0.53055765240140829] [-0.37780536343419951:0.70901667256348488] [-0.081468264360269715:0.48680882000926418] [-0.22746368110278589:0.84162661629538371] [-0.20686173098749389:0.80603692554331396] [-0.12037463223044326:0.96782704038326506] [-0.25919137830939259:0.38554694530059119] [-0.28954742028547342:0.3647601831490932] [-0.31778911336690413:0.4160822412571446] [-0.34415152717340403:0.46188193349164619] [-0.40016945506210622:0.46189506749173243] [-0.36004364670090688:0.38190228004859239] [-0.315921966263777:0.40279749733500031] [-0.36319877603898088:0.28205090504286595] [-0.18717170007404715:0.73093576146702299] [-0.21589432552390794:0.74196079134990045] [-0.20061099017398071:0.4529387992761813] [-0.14343934748549889:0.60289117886375487] [-0.34971732586952536:0.31146998354918976] [-0.26554703633108762:0.48117128778612345] [-0.33860062415508962:0.43388019227395713] [-0.21960855763819176:0.63675403314629941] [-0.24842198045818048:0.75475783773730964] [-0.42465167229001777:0.55483359129791221] [-0.36893875534056986:0.4171979174246741] [-0.13528607629882192:0.92133782722794122] [-0.31306963265369786:0.43854332742624846] [-0.26408491953493807:0.43723414189403453] [-0.28857221851925491:0.79762709824333977] [-0.20497461211443715:0.62765119557834725] [-0.443601241096995:0.49232082110433428] [-0.13339931889617213:0.89239908447398519] [-0.24871160405660422:0.36993425124970336] [-0.27251419105143826:0.62690555967642148] [-0.23892410205239731:0.52277131932546073] [-0.36065530581789573:0.49281836888112113] [-0.28393828035879043:0.63861851504854061] [-0.50602812842152112:0.53441055312348984] [-0.16798732060617569:0.61989303854497824] [-0.34985182280785082:0.90068377908388808] [-0.37512057180807612:0.61972267776995371] [-0.15228844138790215:0.69061433066182376] [-0.22797350013091322:0.48159463368932337] [-0.1399239473133447:0.44847080755794594] [-0.20936694969895911:0.48891875580900751] [-0.23155399196523541:0.52385449835224762] [-0.13730405545928381:0.69686007905698222] [-0.45331827775041278:0.53974242512492232] [-0.39360271980957989:0.45510486871901096] [-0.34680725245833915:0.25930163982878601] [-0.3063247955080049:0.50256245318044057] [-0.3062250614431628:0.64679848923472449] [-0.33772664087309467:0.62884567117014456] [-0.31200037156680749:0.29355758243592389] [-0.29995136834313868:0.62938410929431188] [-0.13475427782650348:0.83903888176739561] [-0.21964247159403191:0.56210210460733712] [-0.20388894367806432:0.87713336927057717] [-0.31707754608508498:0.36111110816528963] [-0.35863953762913436:0.42255538317745633] [-0.09058872876735255:0.69937065133633669] [-0.26160935658860474:0.37507927884031356] [-0.12590129573730774:0.68487707531322695] [-0.18562958812173633:0.66178511348295388] [-0.33545615765939046:0.39419600549412481] [-0.17716927704557542:0.58856997057403759] [-0.21174347902603174:0.46141317288027123] [-0.29435373542918947:0.62334374414508409] [-0.17859306485017246:0.7280848481201504] [-0.26512682151477901:0.44894032037562354] [-0.22566153914157752:0.45328911815224071] [-0.090176374062726231:0.81688830631102882] [-0.4895139207007918:0.51181158545639271] [-0.32284222191159478:0.39564264197083993] [-0.23928478257648655:0.42457193354876721] [-0.27744391499689713:0.3256718860882572] [-0.29519944039773904:0.33084779473614839] [-0.20591603515500448:0.30090350036389157] [-0.26460906834487119:0.38996369613728166] [-0.2186123557981437:0.44516997081230275] [-0.28503294432224502:0.46138284045278688] [-0.41406016780555366:0.46881091419196241] [-0.35033275526234209:0.4030643669651649] [-0.29066183316610389:0.45312179659901836] [-0.30140984092358097:0.33460006732887276] [-0.20861380871381283:0.50821340656839364] [-0.2626886622954126:0.57658833978306456] [-0.28612507748604793:0.44150787209239195] [-0.26507038033828434:0.27360920337782169] [-0.32162704352452426:0.30402277665158345] [-0.29120577887301424:0.58064203421990135] [-0.14002323308949841:0.40052911279795789] [-0.36379119482329109:0.55704018137865929] [-0.1483256418587062:0.58454757369100474] [-0.079514411292812615:0.95484226501082836] [-0.29695764350740694:0.46172043793830991] [-0.097398921328927912:0.9086547226907643] [-0.35226069761163437:0.4790312684119668] [-0.16674513892167367:0.50001028115151391] [-0.44641234958565401:0.54952683644111289] [-0.34188632711728428:0.83945393475178887] [-0.36667914344898678:0.51516557127346851] [-0.4345380783230221:0.43354512921749117] [-0.47025766914444167:0.47222362807947921] [-0.26822659956533956:0.62833556210188002] [-0.2100145068074307:0.51047222270031867] [-0.10232050913081175:0.83143697035330932] [-0.24941247437261141:0.53986675202770362] [-0.13672621330889423:0.80058785915741459] [-0.40441832914615095:0.40831572126567667] [-0.3889502604898461:0.51302215262966988] [-0.22808753272428975:0.58756128883109593] [-0.37229935507334699:0.59648159839121528] [-0.19597321227913889:0.67310280256367849] [-0.16368417075679348:0.66043333215483468] [-0.40627706587747731:0.72861451647619335] [-0.35826831986031349:0.53613831867861494] [-0.27719158037873914:0.60501361673863174] [-0.21505805836235173:0.69538055951850009] [-0.29846441416016944:0.36085754922945446] [-0.16361724707192687:0.80271360313097939] [-0.24119838442457953:0.38230811820319499] [-0.13451706396878679:0.78286383520486558] [-0.12316684772414208:0.80935356353214949] [-0.42125179919868272:0.60768164871472197] [-0.18181826960983721:0.41821745658286724] [-0.18021534869825798:0.58525817228329269] [-0.3117651032309815:0.45532144931541074] [-0.19667660156548172:0.4225301740128572] [-0.16115622129150645:0.8087473797405611] [-0.23456187069650933:0.41988347837880868] [-0.31293757986593745:0.53621306246526113] [-0.50626348571853808:0.53215615673640626] [-0.16439569700772622:0.64194216972232399] [-0.28065505228891419:0.3558232538439785] [-0.40430209809915313:0.45856557827162847] [-0.22948401419430844:0.5004654244512392] [-0.1500378855666874:0.4296551013474762] [-0.37264991889282001:0.71527143383664893] [-0.24342395014287732:0.50994079473450016] [-0.25900534806954367:0.45992928094805186] [-0.34134372848854933:0.71808921542788617] [-0.08720636561476823:0.90555531378854881] [-0.3490066609456457:0.36884603643896124] [-0.35486978453127022:0.75060861672193879] [-0.14829175581037943:0.52675480184391865] [-0.25296070896688427:0.4770042869703901] [-0.26779151400944451:0.44547341968373139] [-0.3459380758702944:0.33270781935925597] [-0.30796334330188263:0.49656217742521147] [-0.37929318453656824:0.42414878030663344] [-0.25386792285712972:0.36581298199141421] [-0.20831851772265528:0.33317646530307587] [-0.28317848678507607:0.39955672439547119] [-0.19471692352327122:0.6114064105063266] [-0.35880195973345846:0.37375658593440525] [-0.27628900919237903:0.53591122043633477] [-0.27551092968310431:0.39281311491007909] [-0.19312601926368189:0.61194463710991542] [-0.5156938632913094:0.53480647560007954] [-0.33949270232705325:0.39140180153371962] [-0.16086456503968119:0.44772419385208839] [-0.24809633115625312:0.3767309481810171] [-0.33152281072596579:0.55345653030257991] [-0.26026667786906871:0.46530515346473922] [-0.27041647362355065:0.61897156657315411] [-0.23537270220824835:0.77377157760013315] [-0.0407360290175829:0.77980112344592789] [-0.24020972381997824:0.40795816094137793] [-0.26768237251835247:0.34918058366769678] [-0.31692907240932888:0.44149453087652935] [-0.25415239820245072:0.34242305958641672] [-0.32174918174919054:0.37900651460318718] [-0.28931644595985712:0.50321660193542039] [-0.29916549762018901:0.62421905199929073] [-0.07998554030077:0.80516645832386124] [-0.44723515166804539:0.55867203105760599] [-0.30447955071689159:0.25513606391755567] [-0.35448327701346277:0.56018250710118223] [-0.10807930302403168:0.50402499850605287] [-0.38729773675354018:0.51527292843949257] [-0.2056844965440662:0.5267368116376081] [-0.18770072693103054:0.63695800050804185] [-0.18726382076107267:0.61455772464270908] [-0.40837427320304676:0.46228656530567019] [-0.14248436528501141:0.70680264444115204] [-0.1173747217106039:0.64005213507088943] [-0.24952488411934826:0.51149249131646302] [-0.24292767442848623:0.41953609693970734] [-0.28904764494094615:0.44270852427892304] [-0.18499400335353466:0.58914339459397358] [-0.31884919298720915:0.59990774295689486] [-0.25700000073636836:0.57163793391951656] [-0.19950571276256152:0.37645233904719794] [-0.16292877555769436:0.40865544682466093] [-0.30389215843708045:0.54996589053477285] [-0.37904728751690359:0.47058629907175115] [-0.29468312621667236:0.43829875660523848] [-0.26661752667514771:0.43692974015082825] [-0.21005179257795709:0.46761865775089106] [-0.29171425814288182:0.52027440013113035] [-0.1831768448821369:0.65233477347514002] [-0.22212914128654024:0.28953846209301626] [-0.24344371991245556:0.42292026932006693] [-0.33758649284651032:0.63884242148448556] [-0.46855833517300177:0.66135894001553719] [-0.10184058585967201:0.60927465115831414] [-0.26052201285686566:0.34240693652303056] [-0.24885638740264371:0.39071003394357129] [-0.25165028014824586:0.35571788287682038] [-0.25070729622008636:0.35702592317439774] [-0.20354658608958748:0.60704726642665729] [-0.28002286115366259:0.29130710624130141] [-0.19844807961693472:0.33822500742167422] [-0.23495256297289105:0.41358138025955382] [-0.12016572687800627:0.70435573323498057] [-0.29808545748104381:0.55835682752408344] [-0.21074378498576221:0.22851016581274256] [-0.3954049045881059:0.41546648003613185] [-0.3252589186661739:0.34130490645206513] [-0.18731925634839641:0.66850317200116305] [-0.33579120575754667:0.40413287958980665] [-0.20466661024805155:0.64845264824458382] [-0.38871109641094015:0.46037017386622064] [-0.13017878329009089:0.70339643897401416] [-0.27539429467332188:0.28423790176620223] [-0.29505720617283643:0.36357341825489875] [-0.13934293366152925:0.50314381926886875] [-0.15988310739965564:0.77674630350721963] [-0.2228532821822298:0.79425404900233088] [-0.33051545978132574:0.4421641148309029] [-0.23856196700021964:0.53567408643921188] [-0.44488275322513221:0.52636118816642641] [-0.25706289040026609:0.43453011502571259] [-0.30587105249453117:0.40523683154317464] [-0.29966512520640409:0.31020583401189183] [-0.20959392568915847:0.64630022063658987] [-0.12029424466308217:0.71623336697904982] [-0.25771633989740678:0.25048841059235688] [-0.47796694173440579:0.68659448083164176] [-0.13548204810174488:0.5865975775493496] [-0.29292164034492385:0.47260487633959741] [-0.24280013993368166:0.51126080347528968] [-0.50228113105851147:0.49160162944790331] [-0.30352743593406256:0.54508369398461909] [-0.1999815226458263:0.46162253199445558] [-0.37591640078077904:0.56799287323167869] [-0.2784200254310219:0.70563460395401745] [-0.38554170014005645:0.35840699776726703] [-0.30337782111383432:0.39349354888747184] [-0.15855903509446423:0.73739084854674519] [-0.36078545201921658:0.39453631088275515] [-0.25315434998661102:0.34759003389918525] [-0.2036361171167399:0.62957913765153051] [-0.2789213910258751:0.42251661835511345] [-0.3253739423333179:0.42785114265640389] [-0.20123952827961322:0.40952737466288508] [-0.065311729093510393:0.67439474580799508] [-0.42662162330583847:0.63678653181876266] [-0.27682924912433199:0.27784510913754495] [-0.17637924851805353:0.3036106735889762] [-0.11350266940573557:0.83897620383657245] [-0.19651920044380478:0.46282800381513778] [-0.26053912928254996:0.35491183788646358] [-0.2838032142108674:0.42734660048168976] [-0.29242999734115988:0.41710865358457949] [-0.099493242839867144:0.74665785676476237] [-0.16641512787819182:0.25692244324996688] [-0.33479778810395522:0.40024597502465392] [-0.26366853017764108:0.26712057622651392] [-0.34858801496568631:0.37741482621828609] [-0.25967288469804845:0.33017933852395287] [-0.16692266225954219:0.59912571179348073] [-0.18920385455550584:0.38575749020734895] [-0.24688694013289056:0.25768576333090704] [-0.2068210483248229:0.35996022462264349] [-0.2028334715143521:0.42771337275077848] [-0.37505222904765517:0.44060035144120924] [-0.18362689101817481:0.35356079680901087] [-0.26662942011735385:0.35761324045862564] [-0.2897133551097727:0.41773573454914448] [-0.23425196018171363:0.37608252803280939] [-0.22186979364764101:0.49589480754438647] [-0.17275675492494763:0.32454495716526366] [-0.26732835948858658:0.37208753095175845] [-0.27070960247511239:0.4127007911720687] [-0.23172665078274746:0.27605450185592195] [-0.20239373722172774:0.24575268605103398] [-0.19824705778090534:0.40841234179231056] [-0.18032457200717067:0.26198627428832538] [-0.29690844397039812:0.31864030535743415] [-0.17346650042406667:0.59745459325496864] [-0.2898369072405575:0.43688298478113657] [-0.22484416469564389:0.3232436206605212] [-0.19663649301349453:0.29006385566957676] [-0.22998523429597656:0.24515880588891009] [-0.21432808395600852:0.35372995576541788] [-0.19121908929943812:0.2262843887423186] [-0.22119779947142754:0.23305373016925707] [-0.15881608143723758:0.31149607224219916] [-0.17458145579280429:0.30468604712614039] [-0.26011361343609007:0.21710608851333504] [-0.12452098290627538:0.48597460013105714] [-0.20488685351617789:0.22781883059194591] [-0.25318288489351376:0.29165549199492002] [-0.26454419685379443:0.32570420312038612] [-0.33370564446774992:0.39758973786105273] [-0.24042256857621394:0.3956413417497498] [-0.13576750863003045:0.30020003412621221] [-0.31632413326539882:0.32438734144935055] [-0.40307589023507845:0.45803142069959757] [-0.26310657119285119:0.47512808971111137] [-0.24126477689056597:0.32206279662837378] [-0.22954339376194399:0.52971107918882754] [-0.37735079369036184:0.43338697129907561] [-0.20362188744167181:0.29939132184573836] [-0.30713237209147531:0.36838472527890503] [-0.18503208773553481:0.33946285754062711] [-0.20419845460461467:0.31128845793669535] [-0.18158642789590218:0.42798603124708878] [-0.24185747225147208:0.31821453792345195] [-0.18018585680227051:0.19152353726433674] [-0.18357829483875088:0.25856380185756833] [-0.22733043092722377:0.39281303920496807] [-0.21487722492798575:0.2735578533237083] [-0.194716373984198:0.30122007881021068] [-0.26390121573149672:0.29589187190578359] [-0.19234486470221263:0.33740082942059479] [-0.29926580808184855:0.37221632874504235] [-0.22101195309982977:0.29001244782096541] [-0.15666247354319571:0.32874039439523717] [-0.1849034624899672:0.23801257612762361] [-0.14320465469010493:0.2204370615486668] [-0.19497376537371361:0.2482832548248588] [-0.27896339451823188:0.34566613125424744] [-0.24602991370208765:0.333594228760344] [-0.23999536813134029:0.3232199926556294] [-0.29283236237557819:0.33689830345061161] [-0.12583851500711352:0.27265977103892075] [-0.30820288359609038:0.34929803415013627] [-0.16014478934644868:0.28288119030189135] [-0.19219184819061902:0.28082976844620017] [-0.16711927985408434:0.30593097421410065] [-0.23730862004613701:0.26732280099534722] [-0.1962758818232628:0.3512768185794074] [-0.19444161434410845:0.30826966189766164] [-0.26368058565891556:0.2279438015679574] [-0.10116743219198117:0.31409805605279689] [-0.21409607593911448:0.30152063716036587] [-0.15183557927306604:0.23432486728649959] [-0.22636137358627501:0.34349341204551725] [-0.23031526208304678:0.42892931686180757] [-0.28489952489092563:0.30159616837057091] [-0.20334062862529989:0.25789901970947304] [-0.32492492750835322:0.42362636102098478] [-0.24305114131306335:0.44400749996087996] [-0.17586623889988962:0.23809949731247937] [-0.28843110111737819:0.29916208911004682] [-0.23030116765900968:0.32984427983025838] [-0.25249030195655969:0.24242046138972867] [-0.17579857619566122:0.23919029328219832] [-0.15447315623116464:0.24015158048157351] [-0.23583103088388016:0.27098687751720441] [-0.23923187570405441:0.34533090166010499] [-0.15860802010965494:0.359924396435223] [-0.24402374496007551:0.29411367258377002] [-0.14239077623066029:0.40016646430326946] [-0.21141291130177736:0.38400521570531454] [-0.22332917753135567:0.31774942035861531] [-0.19171768783094956:0.36816572742933823] [-0.21547677108622007:0.30209180515076983] [-0.18560645294727079:0.19695459714132207] [-0.2018146843016623:0.2438721891432713] [-0.15884970125702222:0.35725404532769583] [-0.22054094012098199:0.20844755023259848] [-0.24214996477373718:0.47343298643926729] [-0.15559418285348717:0.22142211910423759] [-0.18938489206010062:0.21600875229875541] [-0.20350903359792175:0.29877160088479771] [-0.19100682089947404:0.30369733676323662] [-0.19272792692479362:0.27360267528892501] [-0.18553385465178993:0.23719284472698798] [-0.1811565403978623:0.2513602350801773] [-0.20507354461289867:0.25884044370590031] [-0.17092673979644951:0.27003763030058126] [-0.30159115961549371:0.31209013679483877] [-0.24366929241401056:0.23024432815520648] [-0.12739484273135748:0.27414323093316284] [-0.22326330579626902:0.28201553647438182] [-0.25068128517436783:0.26340406974826119] [-0.13529326196864491:0.35822497112031776] [-0.19201069267358717:0.2737226048375031] [-0.21363949190041351:0.30920584767502207] [-0.21079878227301369:0.21359564320776181] [-0.23660260723343401:0.44044798739918689] [-0.24868833327001311:0.24029656465352123] [-0.22694007870072541:0.22403402096574654] [-0.19233324382188199:0.24816914582590577] [-0.1489249332238661:0.22389230049648537] [-0.19291537546946805:0.20078945806717513] [-0.17695460411961828:0.18761346858988556] [-0.18439855128075561:0.2675621711403019] [-0.15125291321167578:0.32249360271503391] [-0.18871125112600531:0.26357675449200291] [-0.18862439502088485:0.22253453448100041] [-0.17345651362584133:0.20934220614290983] [-0.24610523026359035:0.20960109568371305] [-0.1887339652054385:0.17950962948535629] [-0.1906950906766138:0.25429727834868743] [-0.19605269885415805:0.23145501345736938] [-0.16333851718275899:0.31040671299843153] [-0.26145984698496721:0.26535880157862002] [-0.26526828410153169:0.43078230247701799] [-0.14399762404522826:0.16854664832091029] [-0.23114768941036692:0.28744888858599393] [-0.16831016246029615:0.19940372510683574] [-0.26689594024775004:0.2548136672428844] [-0.1559637139203302:0.27779489181529771] [-0.20491634269849365:0.25220487360484944] [-0.18145371880965636:0.21801449886666363] [-0.25373587996469366:0.26336540370985212] [-0.14403854183580356:0.19053994962040977] [-0.15772160743659519:0.27118640981666087] [-0.17698510327506473:0.16698220399593394] [-0.20559300670687455:0.24024212278207333] [-0.16746077216420813:0.19024328541516031] [-0.16811681318475818:0.1806171196056085] [-0.15290665155377445:0.26019135834971674] [-0.19287543583065442:0.20977325195716989] [-0.1560014894814899:0.18374654695766068] [-0.19220019314748932:0.18413303822265412] [-0.1504124829219885:0.25248052226326939] [-0.24346518746187853:0.29652562587788989] [-0.13134152827870682:0.51750914938722192] [-0.18034108039979926:0.24847951640693061] [-0.18152050726705382:0.33590475541920306] [-0.16583999128267551:0.20575078920694873] [-0.11921709851648091:0.26779617569486192] [-0.19651568530542368:0.22862299470530789] [-0.17360258289980898:0.25457772780392862] [-0.17901165737339186:0.1584071040563611] [-0.20449540720244858:0.24655397726658901] [-0.15769675106603856:0.25148725786774867] [-0.1309433616631672:0.17873293124617007] [-0.16771601199718733:0.17834071806502239] [-0.14904513457426724:0.2956933487518803] [-0.15164067071024123:0.27166358251170208] [-0.22039257188324468:0.24078892828156143] [-0.20141250825777959:0.19851866882265284] [-0.16764620365826099:0.21399115372934477] [-0.19337334249100568:0.17035906842955881] [-0.24026030649671132:0.25140443802836765] [-0.16507301629876114:0.20660074597147951] [-0.17850238931238638:0.22019642151773389] [-0.13991547608356977:0.1970354552550691] [-0.1508110969958614:0.21639681213899264] [-0.13895656981577925:0.19138407542556146] [-0.19910108567280732:0.225567781784554] [-0.17106021620689779:0.16993406757730767] [-0.12764717959007227:0.21552010218737283] [-0.14648383241001442:0.21224258556313444] [-0.15906781891180188:0.15784844152560668] [-0.14817452944548826:0.2488145217382538] [-0.13254376303462176:0.16010047883008705] [-0.13456089353455408:0.1820724978752718] [-0.16981784888930096:0.19526561747050381] [-0.1516317030399528:0.202334924602313] [-0.18190506143852725:0.20782497794435628] [-0.14792008771575749:0.14146832774957124] [-0.14012515479521853:0.16721660015152762] [-0.16270123557893287:0.21221780236671928] [-0.16052671675411057:0.1967915758121222] [-0.15952171684735489:0.2480272507106957] [-0.23778269625649529:0.18650263522846933] [-0.14292527748633266:0.1714247784661862] [-0.13552912426331598:0.1668820800932328] [-0.15847575874735606:0.20041555128469593] [-0.1830120861349003:0.18190391854012739] [-0.12126630543065654:0.18238567001280701] [-0.13955422399224432:0.134987728796998] [-0.14246942349220376:0.20689373571459463] [-0.15413402485431843:0.16520594553182316] [-0.17644453945522384:0.21248465347775905] [-0.12417995307311755:0.20978892103089675] [-0.20057322745715686:0.20366126334569373] [-0.13542874715818154:0.20860292378965148] [-0.16191134003398344:0.22536755686287865] [-0.12487679482045869:0.15777592750784783] [-0.16007008627110128:0.16146404465390138] [-0.17071315599613832:0.18395771204246791] [-0.19573260900788209:0.14430585706569449] [-0.1336460740915526:0.17443469515855164] [-0.15137813443938083:0.24034025541183185] [-0.12579741005670692:0.20350392701164466] [-0.19388991841769501:0.1800803144141887] [-0.19536531278051514:0.29235388155755609] [-0.17202271687163351:0.25694532091519939] [-0.12157252693004864:0.19373118849089477] [-0.15975706556641447:0.18630949185184106] [-0.14385189482945787:0.20264298345531365] [-0.1551955025415177:0.15009188119840841] [-0.1456653534858926:0.14105927284112907] [-0.14381188457682298:0.18330516013733056] [-0.14630899767547331:0.14287728373532946] [-0.11320015026575929:0.15364730360104401] [-0.15204571021314639:0.20271883095483889] [-0.12694965484422369:0.15180340323455244] [-0.12376558840313832:0.1804482257151292] [-0.13980679636521656:0.16578273760752199] [-0.16701218071747961:0.15307150114185183] [-0.17232358089219124:0.22146174776509764] [-0.18595438441364848:0.13993737690725083] [-0.13106460842663231:0.13216833993200444] [-0.15680686308971303:0.20364244046100244] [-0.15602030062759525:0.12950369195647959] [-0.11747329012122192:0.24305624425378836] [-0.16752844774764711:0.20139315474150804] [-0.15128950341945743:0.16703335495499133] [-0.16098541273279554:0.13829915592683539] [-0.18629044046584795:0.16680421894123315] [-0.17008221425148498:0.17683471580389315] [-0.10340253596971198:0.15299269250041567] [-0.14021989290907799:0.16280957445209715] [-0.1696389698596818:0.1919860846195178] [-0.13095281707464865:0.13261982422793606] [-0.10323522371416116:0.16063639603250854] [-0.11500862700367827:0.20449740892168647] [-0.13780619052550708:0.2015869459825157] [-0.14847796463782376:0.16892838298102358] [-0.14630709224170141:0.18453792208834446] [-0.14196431986028263:0.18245034021402551] [-0.13825260838796857:0.19733168252688962] [-0.15527562747087498:0.17735407732815089] [-0.12952281198427495:0.15345203403893479] [-0.12678782218075141:0.16797601591128236] [-0.17372048452312588:0.17881689225737801] [-0.13845350096774778:0.17630413827175662] [-0.13478091626713817:0.16205011265710501] [-0.12462982016148411:0.17705460423341973] [-0.17259718943236213:0.20124726979443902] [-0.184178650542248:0.17299434151120036] [-0.15643662219498522:0.17777431496231769] [-0.13569190210687604:0.12635321438728489] [-0.12917986816147836:0.12978339778160297] [-0.14733215802670055:0.1606029594492874] [-0.11723319861011505:0.18027395090398945] [-0.11579990561767198:0.18166892619656339] [-0.12209861406236208:0.14225900423957138] [-0.13339629333946423:0.21548112057658267] [-0.10735717466508816:0.13878687960253941] [-0.12630452074067688:0.16956218752377894] [-0.15200634777633243:0.13406033370664802] [-0.13380713197169758:0.21420250237473226] [-0.12306060190535477:0.14062111447919631] [-0.11263174030913117:0.13500042971992948] [-0.1518583907262773:0.15604172743231548] [-0.11584110764346789:0.17016117349595866] [-0.14761141819345688:0.16709791999036067] [-0.13991730139393066:0.15491699717559365] [-0.11605580553347708:0.14667100922443937] [-0.11183703655205685:0.1454232646184716] [-0.12177660762151102:0.12404945547867632] [-0.12820321393459799:0.20564108123583447] [-0.12036759383802015:0.12404995896889992] [-0.13162038273829771:0.16492316472569984] [-0.12818779178814413:0.15178582968845239] [-0.12076584666836833:0.14716849654647338] [-0.12384308761524493:0.17147009696550916] [-0.11382635748443398:0.18967690057679487] [-0.11757486068762674:0.12802241964336913] [-0.10658260682421974:0.11467631214429913] [-0.10450012909247657:0.1395311557721991] [-0.17632495142623231:0.17892188072575527] [-0.12841570055051282:0.11424534721638846] [-0.13636528842012696:0.14630968478669273] [-0.10973921006230761:0.13581477890711197] [-0.10772584856470574:0.12979746594888233] [-0.096951896389493003:0.16912312619194064] [-0.10773686556721354:0.14649950122130939] [-0.10722927395460823:0.16356723254122224] [-0.11094796409287548:0.12568275570698639] [-0.10728190995032394:0.18791009337639103] [-0.13473449404649621:0.14178814287674918] [-0.13294970063643957:0.15358818735016125] [-0.12091413732335818:0.11862610362482563] [-0.12579484819038456:0.18172157569241654] [-0.1158743192485728:0.11638145193821317] [-0.101145499182568:0.14129909563536855] [-0.1130131528138193:0.13994465797774891] [-0.12099875505891225:0.16544118217701659] [-0.12686348366544392:0.12716067580826573] [-0.10222918228249368:0.10576036730304045] [-0.12119855350664244:0.11740469121314293] [-0.09413563857917745:0.14354132772516534] [-0.093808966357330978:0.11984884775525032] [-0.11706651454583075:0.11526080577873911] [-0.10040614707118901:0.11956849312309997] [-0.1075524089583438:0.15282399145033149] [-0.15489511216641302:0.10279440711578849] [0.0030715328186902958:0.51664538482346034] [-0.22812476266108356:0.90583463842277989] [-0.26840923368023967:0.75849345614755004] [-0.40208836882728582:0.52609766632782007] [-0.31660587545208035:0.75119785877939627] [-0.66005897640018352:0.33476115804728129] [-0.46280125736743766:0.50105135187877914] [-0.27059486418150774:0.61237064794792728] [-0.33268472336108157:0.6282162158520066] [-0.35348756865847564:0.63359271851817012] [-0.34613652919972726:0.54572546807403999] [-0.33048330939696446:0.47625769620546204] [-0.46653394657989511:0.41651773966244282] [-0.20033046886430875:0.62250292826572939] [-0.46610511845533231:0.31996385611378841] [-0.31406888709394221:0.47553873951081216] [-0.22711580135131143:0.46869904246832528] [-0.35921295853013985:0.34148268948743365] [-0.2462872731347136:0.48837706578502399] [-0.37397692677390093:0.28329037115355921] [-0.314400511116041:0.32958340845166811] [-0.34309840115743528:0.43114343030505797] [-0.27448164596462832:0.44051500519694825] [-0.26362965113788084:0.40261075248433065] [-0.30578382585524516:0.30131318415202707] [-0.29869321707708446:0.37699051835176201] [-0.29391668823892697:0.29268117764184448] [-0.25920029225036556:0.26938973268525768] [-0.23326761983199559:0.48729394347971328] [-0.32595303974088286:0.38276400907749641] [-0.21064616175136699:0.41021131137901062] [-0.27290877533242397:0.47725544449293533] [-0.3051822162179274:0.40327738515288936] [-0.33526247770457507:0.34613545031631998] [-0.29985057149287209:0.27307401528932806] [-0.32324000867730085:0.38138454739427741] [-0.23366355282812917:0.37450968863444939] [-0.25063429622815081:0.2376480520446822] [-0.27223138968185168:0.28320410248189681] [-0.31087041205477584:0.27428801716003415] [-0.25351641871671871:0.25012244484281027] [-0.2080119270646249:0.27668332404366935] [-0.27085865848144736:0.23249125457606482] [-0.25551574296639673:0.31960599585405919] [-0.22293579317781007:0.41757550445105518] [-0.23002261138348315:0.24560134549608403] [-0.26649101974466238:0.26734303640249785] [-0.29124905111219329:0.2192042639862489] [-0.23978037306775929:0.20919711403174296] [-0.2447385622682792:0.3169457553358464] [-0.24049707226103545:0.24614584524849661] [-0.20731804063145373:0.27719568175155229] [-0.23694595834518339:0.19749846419175829] [-0.17366481461542324:0.3238578866393278] [-0.23685388957333767:0.27148984680754001] [-0.23221753087229782:0.23029545414126579] [-0.20698488991820899:0.29486234745952095] [-0.25376057873318925:0.20134414222319805] [-0.21403794110520322:0.22199609618666211] [-0.20011168226992082:0.29105633906563827] [-0.2021170080280226:0.22749285066790531] [-0.22191075844942559:0.20718373488380515] [-0.21902739325352616:0.2279147985218638] [-0.20912139692600509:0.26710245425516493] [-0.19172172461398992:0.28161528368241862] [-0.18106198667293832:0.25639376621880799] [-0.24272711745052467:0.21884058692504754] [-0.3052900112343328:0.25766361919273073] [-0.16304202015350586:0.28526557434500388] [-0.2215986998251662:0.28246680329047724] [-0.20635228467971636:0.28492326792967376] [-0.2441482464600167:0.19284511619151204] [-0.24009829486408146:0.24543365317905658] [-0.2802700475920919:0.30863088368989744] [-0.19441028398314547:0.20657892336948916] [-0.25453609481880335:0.25919992952803711] [-0.22705568532300296:0.22824827846104939] [-0.19997516378248076:0.23324797928337371] [-0.16323961122887484:0.44945638441875285] [-0.20984231163372871:0.19551229870278103] [-0.18727208726396533:0.30069574794188947] [-0.1781136755911274:0.2623550643750992] [-0.16618968606972961:0.21339775032853112] [-0.18165964536547619:0.20586042270792795] [-0.24779049270362355:0.20438255763432195] [-0.2566331071713529:0.25813912641980985] [-0.16596455672876065:0.22662597517169714] [-0.18577714662979636:0.21654719055026148] [-0.20432102176309308:0.25043492020112779] [-0.20313235378942099:0.36569800197964303] [-0.19819461855704401:0.23051951676807375] [-0.16099305261434979:0.30466029591749944] [-0.20139970034982616:0.1919229999156101] [-0.21700080436647273:0.21014940161625406] [-0.20874980525866507:0.18047181148491798] [-0.22528029115536091:0.17371129151971795] [-0.22202724695966927:0.15150331237553494] [-0.18968569296457216:0.22754249680306116] [-0.25406005003817417:0.20657149885273501] [-0.17791018784216414:0.22121344351483058] [-0.19101127657284442:0.24519730209220181] [-0.17155158786955241:0.23869332285334854] [-0.22036897042338069:0.22863297010311517] [-0.18477120616065992:0.21431250825411591] [-0.16448722434798124:0.26210593153548306] [-0.269951626659791:0.18951064284822797] [-0.23533311710173227:0.18284516368707329] [-0.21206307741763325:0.22877380181314824] [-0.18554369185359507:0.21469324443438445] [-0.1662051701526828:0.44102417338300809] [-0.19574464758135424:0.2162616530078664] [-0.27866324909488149:0.2005673093237095] [-0.22832474030316882:0.20319879025857412] [-0.20262061120767949:0.18133734490717182] [-0.19309787971129672:0.30124249978657358] [-0.24916494433530686:0.2396155331131061] [-0.21109905686706851:0.26944106636006715] [-0.19258603683231165:0.23272455072085574] [-0.24402828711879415:0.22180357469347281] [-0.2066671542397584:0.25803243248500712] [-0.17851586580554504:0.1594067537109739] [-0.19451498692150801:0.19941099361547646] [-0.17092023765509706:0.26400878979242715] [-0.17035466187584178:0.21646831209856254] [-0.18509915257852547:0.27873873432999463] [-0.16789279255949618:0.17040744971678834] [-0.16810149174263045:0.20745101394613433] [-0.17924459315884275:0.19365935190979941] [-0.19510471217286829:0.15849406107413821] [-0.22966343864233504:0.21659407956175325] [-0.24805773576751811:0.20805760534986412] [-0.14568705897312756:0.17356984236656781] [-0.21331258422437002:0.18512266210562037] [-0.16995463106751277:0.17033530902254715] [-0.22927109552190306:0.17702786885739019] [-0.19579582255182779:0.18923753607537364] [-0.19562526547332956:0.23261741165137709] [-0.17156325854557433:0.17875942204583123] [-0.15599619058090311:0.18900069877352538] [-0.17866528076889737:0.15924804598658734] [-0.208417470380378:0.23664524087570693] [-0.17815548072467535:0.16665699151656974] [-0.17063665619251564:0.15546512507984456] [-0.21616981545607075:0.17670453567504449] [-0.19147241641765031:0.17188279312190646] [-0.17314486214713554:0.15512672745519859] [-0.17510995318239869:0.16918693677628246] [-0.15074795200008143:0.17156567643666173] [-0.23419733145009961:0.1551463639610739] [-0.17261210590073936:0.18491191474178112] [-0.20251751088021536:0.20471986810166476] [-0.18297179064986119:0.15926916056481133] [-0.15583507582384348:0.1809422879990594] [-0.18357405973779639:0.20094299339042396] [-0.16974910910452851:0.22819919487921031] [-0.15900605739173543:0.20881374163795188] [-0.22599661038417046:0.14344419539446265] [-0.18299442115037862:0.19049629636799748] [-0.15844826953961755:0.20618016361256247] [-0.17045768936704253:0.1666014515921333] [-0.1744919681174929:0.211192184294376] [-0.15656917565030978:0.19895021896406467] [-0.16511571728290936:0.1995732538077912] [-0.14305175819567095:0.15115354606104017] [-0.17157291435451988:0.18968158403945867] [-0.14684591044270609:0.1611379339280162] [-0.14576317940807507:0.19262506858407752] [-0.14990748711017898:0.17378691449524197] [-0.17318648764686995:0.16091393160588893] [-0.17728698150613484:0.16806197419671787] [-0.16627839857784071:0.20120095178440245] [-0.148702955700177:0.18471854457003131] [-0.18994029685979144:0.16646149036711358] [-0.19654525116718288:0.19634369873769869] [-0.18661553264513669:0.16557527543762976] [-0.20194855911476159:0.14512756986580289] [-0.16903275879389321:0.17194211723239866] [-0.15689825558556542:0.19961650327810967] [-0.19074485727953691:0.18844934986093034] [-0.18374875311236918:0.15555040593640054] [-0.18127676038309792:0.16346619718719529] [-0.14798749067554848:0.18517217068464548] [-0.18413468608388625:0.14869121285170883] [-0.15817771134521758:0.18808190785990558] [-0.19365724991296865:0.14737104094884962] [-0.1962994570827889:0.16299551644204913] [-0.16720191243866384:0.1668921184333487] [-0.15277246732369579:0.18374631280688689] [-0.14529908888984464:0.33877672870238873] [-0.16291521060415426:0.16546329944398322] [-0.17005807362927466:0.16778010149431224] [-0.19221272582044893:0.17103074695497178] [-0.19439514759239332:0.16288280745011474] [-0.1343463234166809:0.17535023310643941] [-0.16930457503030699:0.28964972210036377] [-0.15975685932479397:0.40171743925936521] [-0.15922005327897654:0.15325790076147069] [-0.18179140868091603:0.17263946912069314] [-0.15289704833271672:0.38290051648064266] [-0.15867281647891165:0.1671260313698629] [-0.17478406265991528:0.14035070456738008] [-0.17078675699215523:0.16829553667282074] [-0.15524606280842734:0.20254368255871938] [-0.16745717852620451:0.17299814381819961] [-0.15815434673362661:0.15921327820865208] [-0.14197431176010078:0.27481057706250323] [-0.15320777522895299:0.14242249670567322] [-0.14984981995506347:0.18756650415634485] [-0.14549007335635308:0.15561838120943103] [-0.16460939356752979:0.16433428097138011] [-0.18863897495913429:0.14522327895461754] [-0.20724143696314029:0.23766308579041345] [-0.15699613643567747:0.17420457482180007] [-0.15923578293350105:0.13983650016211271] [-0.15125123485454303:0.15483399957866098] [-0.1320539592634187:0.14894559683196687] [-0.17158378422619217:0.14924930734280956] [-0.12997440676520947:0.25032714488569524] [-0.18987166102742928:0.18700853493158673] [-0.1394346698109456:0.17775047242465539] [-0.14518826109018501:0.16123571323455699] [-0.16563817103106565:0.17716212228312747] [-0.15085221995035616:0.16400164123219119] [-0.14986085763322393:0.15994207642035405] [-0.14264858270114913:0.16643736220433045] [-0.19131183021934264:0.16394386682603165] [-0.13970329922624253:0.14013448460937292] [-0.15381177616087652:0.13199818814109668] [-0.13674602475484229:0.17978401425272791] [-0.22159160553245644:0.13605428700026723] [-0.13265490517718043:0.15148046803989754] [-0.12492352144487391:0.17251208729763978] [-0.19813683240313915:0.14967347561997746] [-0.1145876049432096:0.14611002205532597] [-0.14742722563403154:0.14682172746864164] [-0.13403321519153841:0.16092358869610138] [-0.18064350221134451:0.14368680504494064] [-0.14495555249693148:0.13784619101664897] [-0.14343293731663914:0.13683103065641253] [-0.11192992356568067:0.17298938346695614] [-0.12349586703771739:0.16109107029178063] [-0.176345117387052:0.14253479812787073] [-0.15930629380217337:0.14152310792469683] [-0.12985367755776922:0.17319169416649835] [-0.12346536731205497:0.16976900505355838] [-0.15058309852261342:0.13342988507526193] [-0.14043152031429365:0.12748685710804508] [-0.15404009538326313:0.1430336419091775] [-0.15005908508698024:0.15660004818019224] [-0.15180039679420579:0.13657616993579488] [-0.11947881421951304:0.15804718628399633] [-0.16696506523222288:0.15343083174767852] [-0.15001379188501573:0.22519075473855588] [-0.14264842467684113:0.1949814257518081] [-0.12269428943383287:0.192929770055002] [-0.14047156474378406:0.12792987686699639] [-0.1222469542360959:0.1377555470754358] [-0.1603014578815056:0.14079449578826481] [-0.11749765761214734:0.15365966016634963] [-0.14726872721644738:0.1420677079538176] [-0.13599126178923948:0.15682380786132943] [-0.15271420095296775:0.16327736423594086] [-0.12550473665732451:0.15278564669613068] [-0.12253849010487296:0.15566086042462926] [-0.11627786965998008:0.17915128993054133] [-0.13976138013907671:0.13877693544190817] [-0.18164477376264809:0.12324932393949242] [-0.15127174908972027:0.13077539451834905] [-0.15000171124367045:0.16119250343951175] [-0.13539968877915717:0.15378036083718577] [-0.13545240106767495:0.14276071876150148] [-0.12534795718783773:0.15789076062520252] [-0.16199308733673404:0.15194550647816729] [-0.13008500553814861:0.14592091460994699] [-0.13078233310984214:0.11873779986450048] [-0.15173025984008318:0.13690616888324819] [-0.16892892515664504:0.14574260909561607] [-0.16492226292143403:0.14583771690261146] [-0.12914006329059077:0.22744949088739494] [-0.11748379364476358:0.12338779893453974] [-0.15463791591735182:0.16416980641566384] [-0.13815239238358862:0.16611224631632876] [-0.12240602422144442:0.13608558830793505] [-0.13053030227752802:0.14889806578709627] [-0.13190154668006535:0.14360822725099878] [-0.11211442749471143:0.18632578265668556] [-0.14570725423142442:0.1348789599845884] [-0.11392304366242166:0.15997883022973181] [-0.12062768289550634:0.12294450779842486] [-0.15312404096972085:0.12781414390646023] [-0.12279361039044602:0.12466876047153214] [-0.10116280537557136:0.1531181811028004] [-0.14778775172716455:0.11750695360808314] [-0.15894462215869765:0.14192950245344224] [-0.14014312649118779:0.12807990197223534] [-0.12457320651341124:0.2164796895313974] [-0.11971276043693231:0.13020063370162996] [-0.13984663766533403:0.15204386426038749] [-0.11656229813836162:0.23907550378502954] [-0.11680171898117711:0.13417582143731233] [-0.13239184084433336:0.15227383319617785] [-0.14214495625149676:0.11410508824631603] [-0.13499605065681475:0.15973228816054713] [-0.10810489073029089:0.16298151935311656] [-0.12143873948516669:0.11402081269166493] [-0.16912180775287086:0.12386701458828187] [-0.13860591201250472:0.11924822383110226] [-0.1104587925371313:0.11434986804452371] [-0.14456468510134088:0.14625087173960347] [-0.11876834709659961:0.13660769405281639] [-0.10788639140239932:0.13046777137050131] [-0.11974240316009069:0.12857772842015297] [-0.16963967801968799:0.19495770223083725] [-0.12524648322773765:0.1118122596152831] [-0.13594829648452694:0.1156144706791393] [-0.14084931517265201:0.13525004082586289] [-0.12408875303173264:0.17439078742242672] [-0.1232761899029645:0.1581146520297691] [-0.14624864504746732:0.1440875486262814] [-0.10519374253160396:0.2785744389054825] [-0.13489956772228215:0.12105791744970404] [-0.1148291940102221:0.11946047405969594] [-0.12251416103967976:0.12900547723455938] [-0.1113033366874267:0.11630224444559699] [-0.12437217788308932:0.16026206178047112] [-0.13158796386043087:0.20236302500816192] [-0.11541185214268387:0.14016341291626019] [-0.13376343149234174:0.12086963509131814] [-0.10296295833540355:0.1423283186306179] [-0.14227970548057647:0.18505351330139394] [-0.1303276180356692:0.1144791018372472] [-0.12585242420870227:0.15922048076918449] [-0.12325269786025955:0.15926432146930691] [-0.13764547588862858:0.17361564415674521] [-0.1631579979834836:0.13690583161483172] [-0.1376911615374258:0.11854955418352082] [-0.12235906769827085:0.10882211112637735] [-0.13663902683625659:0.12662491997756806] [-0.12158419502281929:0.17610103432972857] [-0.10830805447984261:0.1323979028661538] [-0.10417979621751566:0.12712059668668524] [-0.11304580469923886:0.13801099549701795] [-0.11097803018605047:0.13882185884890702] [-0.12317433446984564:0.17192974841585104] [-0.12333554457953193:0.12196023141888156] [-0.12011099246477588:0.10959544865360199] [-0.12982354850426728:0.15617636933070231] [-0.11440006736751471:0.10745526439182061] [-0.12559497689260152:0.20652952347243619] [-0.12085445436956328:0.10845077844621238] [-0.10859560048998146:0.15332179091188] [-0.13148889196478428:0.13731919597330763] [-0.12105491416330899:0.16053563626535514] [-0.11373604089437014:0.12949816097751693] [-0.11099249021244174:0.12851706936638657] [-0.1028515683212734:0.16368795852648521] [-0.14633705195857227:0.1379086937388499] [-0.099953632715021071:0.13064833805357806] [-0.10913150222295163:0.12338724906429148] [-0.12153946791005094:0.12212242729659509] [-0.15122178404568848:0.12397223216929627] [-0.13126533116648201:0.15239258299556915] [-0.11131943264413308:0.11720915643362806] [-0.11200717249352944:0.12349054243195999] [-0.13544286874557546:0.15991492870377161] [-0.14740464393416114:0.11085236805053757] [-0.1338311694451623:0.1306197529631769] [-0.1313708013530954:0.11373064150346701] [-0.12913804948583166:0.13639205169154806] [-0.12233037017442423:0.13910114689060221] [-0.11558466045130965:0.14127971894170938] [-0.12271230263330085:0.13963103330325261] [-0.17926251014691352:0.12002448130565971] [-0.094631530756510443:0.10440169440954757] [-0.12021964094829608:0.18594939456512308] [-0.15288099422267334:0.15960124295474612] [-0.10968237264143615:0.11983329828217253] [-0.12314466807869839:0.14678960094363716] [-0.097777261680508265:0.10936155943989918] [-0.14598018960673387:0.11545907563597783] [-0.11119106451707765:0.12790777416548807] [-0.10411538745113398:0.10967914917780767] [-0.10244064532113029:0.14124602144825252] [-0.11437224569758014:0.10991261504834174] [-0.11822733716091345:0.12774890045199513] [-0.10506452108421718:0.14883064448471331] [-0.10069773670351413:0.11019024456428284] [-0.11147366614450914:0.12506613801631211] [-0.13703188314311732:0.11212317339742563] [-0.1035324517037558:0.15674695107853479] [-0.17910298240206782:0.097303904129221602] [-0.093285708351474386:0.13193513210306707] [-0.10910932422152707:0.10852681906330854] [-0.11598611898073917:0.10732127671732239] [-0.1265385946578394:0.12100298543442201] [-0.10106967733581559:0.11715901914305102] [-0.13012602914834773:0.11567753853134768] [-0.10237698631045689:0.11845522908414442] [-0.14811390017048989:0.15048574248644489] [-0.11633589546635198:0.12252901174086811] [-0.10641225100834643:0.18127963404231726] [-0.14902345009102808:0.15935466444531521] [-0.12419410042887792:0.10550056489166569] [-0.094391590172523118:0.11714466748186272] [-0.1445575564612715:0.12206031548104297] [-0.10586265426576555:0.12734519912944875] [-0.12752171973109644:0.15733078193574701] [-0.12490654069134481:0.13190184951631304] [-0.11624933530307337:0.1038042300575352] [-0.11813995666641448:0.12239062961197285] [-0.11796872762595606:0.13343351021872829] [-0.096325169857781404:0.13814607836243969] [-0.14628020374082062:0.15672508073637698] [-0.12408502765150242:0.12878385037599346] [-0.10255796930115527:0.12883571763732884] [-0.13681947738968961:0.21698503313060799] [-0.13149042632254831:0.1661882577696116] [-0.11217116607229939:0.18288850642235133] [-0.11770917974569098:0.11405715096468548] [-0.12230950316178167:0.16816885511676233] [-0.1177378772473268:0.12389862079560016] [-0.098295725310736659:0.15709923449143548] [-0.13374690865016453:0.14818470592836377] [-0.11343155965324818:0.12564662664092907] [-0.12221079042714676:0.14772664263319257] [-0.12794511137231285:0.1135789648764684] [-0.12264708462591255:0.12896529382604968] [-0.097143941383970769:0.26800241557293231] [-0.11079250186462059:0.18390279439161689] [-0.12263317325668815:0.13427968219034545] [-0.11353278155913094:0.11637786024218677] [-0.096190906473990562:0.14266360363314479] [-0.14107247321223609:0.12796565309639241] [-0.14348190647969528:0.21941741474663123] [-0.10388950296243968:0.13378750999666916] [-0.093675134557510836:0.37342676662443064] [-0.10750657363726149:0.12503574675768578] [-0.12013400146934453:0.096528459455671498] [-0.17551814216767456:0.15641937377936185] [-0.11533826809659961:0.12396688119354496] [-0.10565867224870747:0.1190478344099021] [-0.12982060234955406:0.098935295722125782] [-0.10415081042099791:0.10410170745403323] [-0.14068101278247119:0.1247375390396899] [-0.13256236745132335:0.11067052190371542] [-0.10296081447196409:0.099094854255131579] [-0.12321592789333806:0.17167436356396054] [-0.11655160661454926:0.12123761392084205] [-0.10797887703521765:0.11106437394703819] [-0.12934578306497055:0.12453854370870879] [-0.14613006508788715:0.14560484390567771] [-0.12252275651542134:0.17102062970182549] [-0.10441098198782374:0.13111109803527471] [-0.10344542645352015:0.13629157423102672] [-0.081303589204917509:0.099915951069287079] [-0.1103999361450498:0.10480048250494155] [-0.094683525502265956:0.11558087543550222] [-0.11319641849983927:0.10056574576620443] [-0.10360521263629352:0.14136734522718303] [-0.10681670771396569:0.10180274155584763] [-0.10049297392436531:0.13344520276285346] [-0.1203511808528928:0.10268385627901294] [-0.14538057124880338:0.12062157500978576] [-0.11022273563237925:0.099860854643102084] [-0.09795026030049124:0.14252053125947933] [-0.10832805075607056:0.099531690702764589] [-0.10915998560857701:0.10388560704588325] [-0.11381096103150659:0.087745289519365513] [-0.090184081084052778:0.10255640776941902] [-0.10758456711928692:0.11530079380043003] [-0.095501754344993292:0.1034249228769534] [-0.09872264619446719:0.11915057786417194] [-0.12292106426088989:0.10971544410159235] [-0.088847335664132901:0.10825708944261186] [-0.092822988405817375:0.10814840724920605] [-0.12014153397448475:0.14655080343200091] [-0.13765410448425436:0.14965789237507204] [-0.09460401910913982:0.13807106583933695] [-0.13848232724647075:0.14052517684904664] [-0.094349631996574715:0.11325045527086058] [-0.11519609831068559:0.13745044239149115] [-0.094473936144915324:0.10059436726204268] [-0.091740673146635754:0.12730752200686563] [-0.11803894141392912:0.10169182675511663] [-0.12151838788957336:0.12362615640429964] [-0.11812421553831969:0.11184632733014636] [-0.10290949617432572:0.11580863225253789] [-0.088339521805143623:0.10531500544105998] [-0.097278227490127628:0.12170880955512606] [-0.094873940220017466:0.10414840040829738] [-0.10594852359812598:0.10526519721837413] [-0.10578730412274408:0.11640221453704307] [-0.11069725308508555:0.09498427854554059] [-0.10368514358426563:0.13518649106800879] [-0.095348400587402085:0.11905290207797072] [-0.09308405306822376:0.14479363921529481] [-0.091033794393843848:0.12023316988031371] [-0.099810321873611441:0.11266174247279764] [-0.097844088635262685:0.11849853318340273] [-0.090786834747334011:0.09508457942000928] [-2.4941240462222529:9.6800687185047689] [-2.4045652543069784:1.3705985374042997] [-2.4941240462222529:9.6800687185047689] [-2.5885484816095703:29.672962290970577] [-1.0523811395695326:9.6342701522389103] [-0.35764518168378195:15.824084552334893] [-0.26554936626579434:17.159940736501596] [-0.64072627895362932:16.112683528834658] [-0.69954291441567085:6.1549026940605751] [-0.38479033301214621:5.3908242586979993] [-0.17751814316163242:11.375677424297594] [-0.37482121663004392:9.9525781277484509] [-0.29182593492103254:6.9964302499612243] [-0.1522655144415738:19.165958594997893] [-0.080405194965761109:24.283844204338127] [-0.050795039013114808:19.686961944094758] [-0.1293237301734555:22.351905132453187] [-0.084898919844608081:32.270405967242624] [-0.083767393744294122:23.363294029817489]
tree_sizes=5203 4783 3531 3234 3974 3569 3156 3037 4153 3034 2753 3015 2492 2403 2479 3113 3056 2515 2222 2389 2029 2472 2481 1956 3252 2515 2035 3346 2311 3149 3057 2207 1550 2306 2526 2780 2575 1913 3517 4194 1944 2243 2232 1934 2325 1581 1835 1473 3163 2403 2698 2224 2122 2789 2687 2047 2127 2516 1859 2300 2215 1754 2419 2597 1487 1582 2685 1751 2408 1833 2413 2237 2313 2233 2040 2035 1946 1847 1931 2115 3724 2809 3013 2514 2508 2140 2350 2899 2037 1766 1973 1748 2710 3064 2412 1844 1955 1673 2140 1745 2512 1848 2810 1969 1646 2319 1851 2888 1651 1946 2230 2415 2426 1499 1844 2511 2308 2803 2130 1659 2039 2048 2815 1869 2126 2130 2530 2149 1554 1742 1847 2236 1752 1930 1772 1765 1487 1668 1756 1756 2302 2146 2400 1951 1761 1838 2029 2342 1687 1658 2335 1861 1571 1863 2317 1586 1933 2015 1655 2455 1871 1484 1386 2078 1659 1682 1746 1671 1932 2124 1952 1665 1862 2808 2335 2134 1456 1839 2323 1763 1952 2123 1475 1575 1659 2325 2445 2634 1458 1935 2324 2350 1937 2276 1864 1865 2506 1867 2327 1469 1750 1571 1648 2058 1784 1770 1580 1653 1380 1935 1381 1752 2056 1472 1955 2126 1655 1976 1736 1664 1668 1668 1762 1764 1649 1662 1574 1472 1660 1748 2319 1475 1782 1762 1848 1754 1815 2013 1667 1946 1386 1658 1385 1663 1840 1278 1853 1755 1844 1951 1579 2438 1460 1575 1675 1564 1565 1653 1469 2023 1575 1675 1461 1394 2018 1854 2020 1863 1935 1840 1382 1761 2121 1773 1385 1563 1281 1754 1751 1767 1595 1565 1656 1283 1588 1645 1648 1656 1647 1555 1281 1743 1842 1639 1553 1572 1199 1382 1653 1194 1821 1741 1853 1554 1193 1485 1499 1665 1922 1783 1563 1754 1739 1840 1476 1664 1387 1758 1568 1560 1448 1862 1928 1196 1557 1662 1569 1565 1767 1570 1294 1838 1461 1836 1382 1471 1852 1853 1555 1471 1558 1745 1294 1755 1840 1195 1655 1466 1393 1182 1565 1657 1645 1841 1566 1654 1539 1771 1676 1759 1651 1105 1575 1296 1975 1555 1648 1742 1299 1669 1385 1748 1176 1574 1677 1673 1748 1384 1106 1102 1476 1860 1380 1364 1560 1471 1588 1574 1664 1833 1281 1654 1010 1470 1497 1199 1951 1578 1400 1842 1675 1664 2503 1783 1754 1822 1835 1937 1382 1364 1274 1279 1279 1184 1742 1387 1376 1470 1659 1281 1207 1666 1673 1197 1363 1836 1560 1486 1457 1747 2019 1384 1928 1543 1473 1925 1557 1469 1192 1647 1468 1564 1657 1465 1751 1738 1753 1839 1303 1560 1487 1385 1473 1187 1742 1657 1459 1281 1491 1368 1189 1746 1651 1569 1484 1279 1573 1381 1554 1742 1468 1924 1824 1470 1380 1471 1283 1831 1757 1380 1930 1464 1379 1769 1582 1669 1768 1458 1755 1283 1476 1474 1573 1846 1469 1853 1549 1188 1937 1294 1670 1561 1281 1471 1470 1464 1205 1761 1568 1471 1360 1177 1569 1844 1741 2036 1386 1665 1278 1771 1578 1301 1277 1556 1084 1747 1182 1566 1852 1475 1551 1381 1844 1459 1552 1928 1486 1566 1397 1483 1467 1662 1183 1569 1385 1549 1287 1560 1023 1471 995 1668 1776 1275 1748 1474 1845 1395 1382 1469 1500 1681 1742 1560 998 1185 1464 1845 1491 1561 1371 1559 1393 1465 1470 1743 1098 1280 1833 1389 1583 2567 1771 1755 1765 1203 1477 1374 1181 1929 1774 1272 1675 1575 1575 1274 1770 1679 1658 1191 1639 1282 1655 1661 1362 1575 1566 1465 1752 1739 1666 1190 1275 1558 1572 1469 1757 1400 1471 1288 1389 1469 1650 1746 1876 1759 1660 1773 1551 1921 1488 1472 1376 1375 1934 1666 1644 1378 1651 1377 1571 1568 1376 1474 1484 1653 1745 1479 1562 1466 1568 1918 1485 1868 1652 1762 1641 1849 1652 1566 1371 1666 1551 1463 1192 1385 1474 1781 1381 1194 1390 1484 1004 910 1654 1563 1572 1455 1758 1650 1492 1569 1278 1272 1117 1565 1374 1557 1568 1471 1380 1576 1577 1473 1459 2021 1370 1282 1758 1479 1398 1288 1284 1560 1576 1185 1925 1467 1843 1372 1401 1471 1087 1273 1666 1652 1937 2025 1464 1857 1762 1381 1470 1285 1662 1552 1941 1840 1278 1563 1282 1472 1573 1375 1846 1569 1669 1284 1289 1480 1666 2135 1760 1656 1383 1761 1761 1477 1671 1560 1658 1663 1362 1752 1574 1647 1569 1659 1187 1284 1290 1195 1377 1559 1469 1555 1481 1573 2157 1567 1642 1641 1374 1739 1286 1939 1733 1647 1575 1761 1286 1278 1291 1278 1757 1277 1567 1564 1366 1364 1562 1836 2035 1371 1367 1566 1374 1282 1557 1473 1740 1463 1562 1676 1488 1483 1378 1194 1280 1386 1562 1851 1471 1465 1760 1468 1382 1369 1377 1659 1748 1465 1279 1464 1483 1279 1467 1560 1756 1276 1559 1739 1373 1567 1469 1845 1562 1384 1468 1654 1469 1472 1472 1658 1850 1666 1732 1560 1579 1275 1461 1559 1846 1556 1551 1559 1765 1496 1373 1475 1359 2005 1756 1467 1660 1386 1191 2020 1468 1382 1650 1845 1376 1467 1557 1945 1376 1483 1658 1203 1493 1097 1484 1760 1679 1380 1637 1197 1475 1365 1468 1658 1755 1373 1558 1102 1560 1276 1366 1743 1663 1271 1564 2118 1194 1384 1273 1456 1182 1197 1831 1751 1365 1551 1190 1567 1473 1466 1383 1481 1270 1646 1574 1014 1466 1375 1653 1276 1368 1183 1375 1011 1181 1669 1201 1392 1181 1474 1643 1465 1372 1547 1577 1267 1583 1373 1462 1846 1302 1551 1185 1927 1556 1476 1285 1752 1863 1477 1761 1459 1563 1471 1277 1663 1293 1464 1834 1478 1670 1220 1291 1468 1370 1273 1486 1188 1387 1484 1380 1185 1277 1757 1283 1467 1383 1393 1011 1380 1005 1643 1290 1673 1460 1371 1473 1481 1470 1369 1266 1095 1461 1372 1565 1558 1182 1455 1743 2034 1395 1289 1568 1478 1287 1378 1386 1777 1563 1462 1558 1099 1554 1770 1474 1755 1478 1377 1467 1293 1484 1572 1366 1184 1649 1369 1185 1644 1673 1828 1281 1008 1757 1554 1382 1482 1645 1462 1932 1391 1364 1466 1652 1577 1567 1191 1191 1282 1734 1863 1941 1839 1280 1274 1552 1381 1828 1668 1767 1650 1393 1390 1302 1558 1669 1645 1656 1652 1566 1755 1957 1656 2036 1848 1378 1279 1671 1860 1386 1653 1748 1369 1570 1567 1093 1738 1462 1469 1282 1472 1377 1664 1381 1096 1484 1283 1286 1116 1653 1383 1276 1371 1856 1378 1747 1664 1563 1753 1375 1377 1473 1656 1646 1850 1658 1198 1459 1283 1385 1666 1778 1486 1589 1459 1470 1576 1574 1544 1366 1373 1743 1216 1576 1744 1847 1751 810 1469 1770 1567 1683 1753 1647 1930 1101 1485 1280 1291 1563 1831 2140 1377 1490 1859 1195 1562 1369 1562 1842 1563 1388 1484 1844 1656 1363 1857 1562 1290 1474 1382 1579 1553 1841 1276 1379 1386 1752 1644 1372 1660 1667 1283 1927 1194 1576 1756 1189 1761 1564 1648 1749 1758 1681 1581 1654 1281 1938 919 1276 1285 1189 1473 1753 1391 1274 1556 1565 2123 1286 1101 1387 1752 1668 1662 1747 1663 1374 1373 1280 1753 1761 1374 1191 1546 1005 1587 1380 1568 1371 1284 1378 1294 1306 1657 1756 1647 1491 1666 1381 1929 1577 1831 1473 1738 1651 1281 1654 1747 1754 1367 1749 1284 906 1653 1462 1570 1275 1204 1570 1564 1552 1551 1565 1290 1366 1877 1652 1939 1572 1761 1945 1193 1565 1748 1377 1283 1277 1476 1674 1384 1289 1378 1282 1473 1275 1653 1283 1470 1095 1186 1644 1380 1454 1300 1205 1754 1287 1755 1664 1369 1367 1469 1563 1861 1552 1741 1568 1947 1474 1564 1384 1659 1476 1368 1369 1385 1578 1659 1653 1685 1377 1377 1652 1305 1287 1373 1572 1571 1572 1189 1572 1659 1828 1741 1379 1384 1846 1291 1478 1474 1466 1566 1470 1383 1863 1381 1197 1461 1178 1373 1569 1569 1561 1483 1570 1295 1470 1745 1659 1384 1770 1561 1369 1470 1483 1292 1388 1577 1661 1378 1388 1106 1583 1579 1492 1558 1857 1284 1565 1748 1558 1835 1560 1381 1467 1836 1840 1460 1476 1366 1121 1461 1376 1675 1469 1289 1577 1281 1569 1384 1473 1566 1286 1377 1275 1482 1192 1652 1462 1367 1562 1654 1460 1477 1376 1931 2047 1195 1659 1947 1185 1288 1192 1483 1274 2030 1105 1282 1827 1285 1378 1370 1102 1560 1470 1173 1659 1196 1185 1471 1381 1466 1291 1467 1095 1290 2222 1560 1367 1469 1381 1179 1471 1862 1203 1391 1659 1208 1309 1840 1734 1665 1091 1555 1574 1463 1568 1372 1276 1848 1457 1655 1186 1552 1286 1466 1674 1662 1566 1368 1288 1485 1475 1276 1569 2043 1475 1284 1954 1565 1567 1377

Tree=0
num_leaves=47
num_cat=0
split_feature=15 1063 227 1020 1468 245 663 1037 1297 889 1492 1263 354 30 429 529 1117 414 1138 526 193 1173 55 160 589 587 687 578 1121 953 1389 1285 1018 455 1362 1197 1012 965 15 543 1364 1115 1187 441 1121 441
split_gain=81.1183 61.0815 89.7046 64.8271 72.8563 57.2421 16.6316 27.1108 37.7746 68.5644 84.3458 83.5253 14.6569 47.5098 61.7681 61.3919 60.916 74.0667 60.4835 9.89101 9.1749 18.3938 31.7654 49.4161 31.0638 7.28465 23.5469 38.8092 6.9457 21.1168 25.5338 5.27823 4.33907 3.99277 2.88813 2.48573 2.11339 1.99557 1.75837 1.00221 0.923477 6.28761 9.25901 14.0199 11.5771 0.286844
threshold=0.24683348834989596 -0.003483217410922989 0.0004610827908661359 0.089766218161606737 0.010880111956311387 0.0012177274768901964 0.0021045887687029283 0.045828550376400684 0.02342754187531474 0.0012619199835608365 -0.0080611929727802782 -0.0080291027888671086 -0.0073504736858541883 0.0032704716175204602 -0.00010808604471329956 0.00027130380613769655 0.031948904785326686 0.00016263408928757231 -0.0029460121767052017 -0.0046275420205742941 -0.00051046268370868433 0.010061846371316397 -0.00020390884604764735 -0.00074009437425456674 -0.0021422408745376811 -0.0030248398673618439 0.028476408123884342 0.0043989442415388142 -0.037672629749994406 0.0026961619494887726 -0.0046526892125930879 0.032543164438856832 -0.12447481066171089 0.010490870856894133 0.067767473708722312 0.071393251911549521 0.19795278360702667 -0.0088249180708686367 0.050011707959242889 0.018453451038237284 0.022856879072243031 0.017354072307608708 0.0028412507367060408 5.2592340580467156e-05 0.010517912267939118 -0.016358029829439669
decision_type=2 2 2 2 2 2 2 2 2 2 2 2 2 2 2 2 2 2 2 2 2 2 2 2 2 2 2 2 2 2 2 2 2 2 2 2 2 2 2 2 2 2 2 2 2 2
left_child=6 2 -2 4 5 -4 12 25 28 -10 11 -11 13 -1 -15 -16 17 -17 -19 20 21 -14 -23 -24 -25 26 -8 -28 29 -9 -31 32 -21 34 35 36 38 -27 -34 -39 45 -42 -43 44 -44 -33
right_child=1 -3 3 -5 -6 -7 7 8 9 10 -12 -13 19 14 15 16 -18 18 -20 31 -22 22 23 24 -26 37 27 -29 -30 30 -32 40 33 -35 -36 -37 -38 39 -40 -41 41 42 43 -45 -46 -47
leaf_value=-5.4521032381995465 -5.4521032381995465 -5.4521032381995465 6.1341566659705826 -5.4521032381995465 -5.4521032381995465 -5.4521032381995465 -5.4521032381995465 -5.4521032381995465 -5.4521032381995465 -5.4521032381995465 -5.4521032381995465 5.2508120546123944 -5.4521032381995465 -5.4521032381995465 -5.4521032381995465 -5.4521032381995465 -5.4521032381995465 -5.4521032381995465 5.8596399441401008 -5.4521032381995465 -5.4521032381995465 -5.4521032381995465 -5.4521032381995465 -5.4521032381995465 1.274938561539563 -5.4521032381995465 -5.4521032381995465 -0.21644549380553446 -5.4521032381995465 0.28055914663380133 -5.4521032381995465 -5.4521032381995465 -5.6853135249200104 -5.4521032381995465 -5.4521032381995465 -5.4521032381995465 -5.4521032381995465 -5.6025231976961596 -5.4521032381995465 -5.4521032381995465 -5.4521032381995465 -5.4521032381995465 -5.4521032381995465 -5.4521032381995465 -0.90312542783665073 -5.50761351090748
leaf_weight=4.773594280704855 0.24229285307228565 0.41657367721199878 0.15727781690657139 0.089265787973999977 0.11477029882371426 0.029755262657999992 3.3368401695042915 0.34856164827942882 0.34856164827942837 0.059510525315999985 0.22103909403085709 0.1275225542485714 1.2284672725945709 0.49308720976114273 0.17428082413971413 0.063761277124285698 0.089265787973999977 0.034006014466285706 0.14027480967342854 1.6407901979982842 4.3315160926431409 0.3528124000877142 0.17428082413971424 0.051009021699428558 0.15302706509828556 1.8193217739462877 0.17003007233142842 0.11477029882371426 2.9287679959088555 0.059510525315999985 0.080764284357428551 0.25504510849714268 59.008936602622271 2.4101762752979985 0.4505796916782846 0.97767291590571304 1.4665093738585699 11.328253569081419 0.076513532549141838 0.1360240578651436 0.82039509899914242 0.23379134945571423 0.042507518082857132 0.11477029882371426 0.085015036165714264 5.8617867436259976
leaf_count=1123 57 98 37 21 27 7 785 82 82 14 52 30 289 116 41 15 21 8 33 386 1019 83 41 12 36 428 40 27 689 14 19 60 13882 567 106 230 345 2665 18 32 193 55 10 27 20 1379
internal_value=-5.4521 -3.29685 -1.81572 0.350506 1.91389 4.60906 -5.4768 -5.29417 -4.72227 -3.04381 -0.991704 2.4282 -5.53538 -5.20849 -3.65374 -1.79966 0.0336355 1.85021 4.0576 -5.57363 -5.36875 -4.89309 -3.93114 -2.44902 -0.160768 -5.4521 -5.12383 -3.05512 -5.4521 -4.54268 -2.34346 -5.60693 -5.63023 -5.64396 -5.65783 -5.66567 -5.67335 -5.52307 -5.68108 -5.58185 -5.4521 -5.24304 -4.51417 -3.54153 -2.09347 -5.4521
internal_weight=107.633 1.04994 0.633362 0.391069 0.301803 0.187033 106.583 21.0795 4.17424 0.756634 0.408072 0.187033 85.5039 5.76827 0.994676 0.501589 0.327308 0.238042 0.174281 79.7356 6.29111 1.9596 0.731129 0.378317 0.204036 16.9052 3.62164 0.2848 3.4176 0.488836 0.140275 73.4445 66.0312 64.3904 61.9802 61.5296 60.552 13.2836 59.0855 11.4643 7.41331 1.29648 0.476084 0.242293 0.127523 6.11683
internal_count=25321 247 149 92 71 44 25074 4959 982 178 96 44 20115 1357 234 118 77 56 41 18758 1480 461 172 89 48 3977 852 67 804 115 33 17278 15534 15148 14581 14475 14245 3125 13900 2697 1744 305 112 57 30 1439
is_linear=0
shrinkage=1


Tree=1
num_leaves=49
num_cat=0
split_feature=15 1488 1233 245 62 225 1446 1023 819 1326 1412 1178 1440 53 1284 245 853 8 233 1308 1466 1137 542 1025 27 393 1260 1464 810 856 1483 1403 121 1180 1021 881 359 1221 359 907 1440 961 539 1440 1488 1310 1310 1191
split_gain=278.204 296.167 607.188 372.528 182.846 185.087 183.32 118.011 13.8397 10.3677 6.4556 5.52347 11.1858 5.17221 4.98742 4.95776 8.7853 6.99246 9.08191 45.43 49.1038 99.385 95.4628 120.547 123.163 2.95701 1.92701 5.97835 8.06333 18.6879 27.736 35.6591 24.506 2.29755 1.81809 1.26289 1.06897 0.695551 0.625419 0.150257 0.0836521 1.05205 3.27759 3.98537 3.49446 0.363007 0.0851345 0.0633533
threshold=0.24683348834989596 0.0014364888620119968 0.0099279423681008123 0.0005478175839702216 0.28560992078921038 0.0005855943825960945 -0.0013839440736369425 0.004458640229642815 0.0036138940119682201 -0.029170660227407313 0.030288733737831534 -0.01205508803999334 0.0020021522205617994 -0.0051288418897699776 0.036322265066432179 -0.00012014423022978254 0.0012818222790455351 -0.0024331480800694884 0.00116917640730291 -0.00060486988100673877 -0.00020016965508810793 -0.03845085590005521 -0.00060666572117035417 0.029276212417891332 -4.1899085481864366e-06 -0.012008385038806342 -0.013733479807958462 -0.0086638931921132686 -0.00056832592453746227 -0.00075986812533656114 -0.0083774100059671713 -0.0072130659052095257 -0.00024078666275714064 -0.03296091622909527 -0.20627214441201255 0.028558445315184894 0.046388060309878514 -0.046252486896797833 -0.03590363964314023 -0.056100635772431538 0.019964292040740243 -0.00096200861663562568 -4.3181569737590756e-05 0.034432865914565354 0.0072545680699029743 -0.067257091852541695 0.078508852391673725 -0.051628346117625519
decision_type=2 2 2 2 2 2 2 2 2 2 2 2 2 2 2 2 2 2 2 2 2 2 2 2 2 2 2 2 2 2 2 2 2 2 2 2 2 2 2 2 2 2 2 2 2 2 2 2
left_child=4 2 11 -4 8 -6 7 -7 9 40 14 12 13 -2 15 16 17 -11 -19 -20 -21 22 -22 24 -24 -17 27 28 -10 -30 -31 -32 -33 -28 -27 -35 38 -18 -36 -40 45 42 43 44 -42 -1 -47 -16
right_child=1 -3 3 -5 5 6 -8 -9 26 10 -12 -13 -14 -15 47 25 37 18 19 20 21 -23 23 -25 -26 34 33 -29 29 30 31 32 -34 35 36 -37 -38 -39 39 -41 41 -43 -44 -45 -46 46 -48 -49
leaf_value=0 -5.1749375767932175 0 -32.520309322727464 0 0 -20.909698852542373 0 0 0 0 0 0 0 0 0 0 0 -0.38556128159161906 0 0 0 0 0 0 -15.168903518922406 0 0 0 0 0 0 0 7.1008498065600749 -0.18294391600646862 0 0 0 -0.088852737482170666 0 -0.24798649520069763 0 0 0 0 2.2666005099908295 -0.066570794303528705 0 -0.02405379246876994
leaf_weight=0.69392498885281284 0.023740050382912159 0.4505796916782856 0.051796473562717438 0.029755262657999992 0.17648598249070246 0.056721377186477184 0.059510525315999985 0.021253759041428566 1.563903170404956 2.5038948573637816 5.6414311898406586 0.29761824756860633 0.10201804339885712 0.017003007233142853 0.57362353382632125 2.0603427614550958 0.70547852292656887 14.273081057472149 1.9336521935183553 1.1298965837340802 0.10510982549749315 0.7076816384214899 0.044178419047966599 0.072719888295978308 0.12761080055497587 0.036359944147981049 1.8089350312948234 4.0395949457306441 0.39560610428452492 0.18940149247646332 0.096304870909079909 0.035481719300150871 0.10876309731975187 8.9429335438180662 0.54026459297164464 1.162412294419483 0.5157974639441808 7.0677522046025834 0.53750384366138959 37.79863983043473 0.046743776183575392 0.97830972378142067 0.33124769921414554 0.11359997605904937 0.10187767096795142 7.5689636459574086 0.66054875846020866 6.9027311883401117
leaf_count=24 11 106 24 7 46 20 14 5 230 480 1342 71 24 4 155 431 188 2631 514 296 27 186 12 20 28 10 479 827 103 51 27 10 26 2308 13 150 32 1930 16 8638 13 266 92 29 25 2048 15 1317
internal_value=-0.299904 -4.5176 -8.35836 -24.8704 -0.251401 -6.06318 -11.7148 -17.309 -0.222459 -0.261769 -0.29163 -0.936397 -2.03746 -4.18686 -0.310639 -0.333587 -0.4654 -0.568362 -0.625271 -1.16539 -1.95626 -3.25304 -6.75502 -9.12426 -12.1145 -0.214293 0 0.0855335 0.418716 1.03874 2.11694 3.69455 5.71446 -0.0791402 -0.230371 -0.147449 -0.236738 -0.0392103 -0.24193 -0.245739 0 0 0.323588 0.94717 1.65507 -0.0243273 -0.0585237 0
internal_weight=113.403 0.972511 0.521931 0.0815517 112.43 0.313972 0.137486 0.0779751 112.116 93.773 83.2778 0.440379 0.142761 0.0407431 77.6363 70.16 28.6711 20.8978 18.3939 4.12085 2.1872 1.0573 0.349619 0.244509 0.171789 41.4889 18.3433 6.42906 2.38946 0.825557 0.429951 0.24055 0.144245 11.9143 39.4286 10.1053 39.3922 7.77323 38.8764 38.3361 10.4952 1.57178 0.593469 0.262221 0.148621 8.92344 8.22951 7.47635
internal_count=25321 247 141 31 25074 85 39 25 24989 20778 18266 110 39 15 16924 15452 6312 4194 3714 1083 569 273 87 60 40 9140 4211 1274 447 217 114 63 36 2937 8709 2458 8699 2118 8667 8654 2512 425 159 67 38 2087 2063 1472
is_linear=0
shrinkage=0.251877


Tree=2
num_leaves=36
num_cat=0
split_feature=61 1266 1310 11 1087 312 1010 1423 865 1120 950 515 879 923 989 1308 442 1487 1469 1129 219 1295 1130 361 1000 1066 463 1460 482 1229 1499 1490 1423 1423 502
